<?xml version="1.0" encoding="UTF-8"?>
<!-- This network was created in GeNIe Academic, which can be used for academic teaching and research purposes only -->
<smile version="1.0" id="x000_2" numsamples="10000" discsamples="10000">
	<nodes>
		<cpt id="Erk">
			<state id="x1" />
			<state id="x2" />
			<state id="x3" />
			<probabilities>0.148 0.617 0.235</probabilities>
		</cpt>
		<cpt id="Akt">
			<state id="x1" />
			<state id="x2" />
			<state id="x3" />
			<parents>Erk</parents>
			<probabilities>0.7539149888143176 0.243847874720358 0.002237136465324385 0.7893030794165316 0.2090761750405186 0.001620745542949757 0.07659574468085106 0.5404255319148936 0.3829787234042553</probabilities>
		</cpt>
		<cpt id="Mek">
			<state id="x1" />
			<state id="x2" />
			<state id="x3" />
			<parents>Akt</parents>
			<probabilities>0.6823338735818476 0.3047001620745543 0.01296596434359805 0.5821917808219178 0.3150684931506849 0.1027397260273973 0.01098901098901099 0.03296703296703297 0.9560439560439561</probabilities>
		</cpt>
		<cpt id="PKA">
			<state id="x1" />
			<state id="x2" />
			<state id="x3" />
			<parents>Mek Erk Akt</parents>
			<probabilities>0.4845360824742268 0.4020618556701031 0.1134020618556701 0.4047619047619048 0.5833333333333334 0.01190476190476191 0.3333333333333333 0.3333333333333333 0.3333333333333333 0.009554140127388536 0.7452229299363058 0.2452229299363057 0.04477611940298507 0.8656716417910447 0.08955223880597014 0.1666666666666667 0.6666666666666667 0.1666666666666667 0.0303030303030303 0.7575757575757576 0.2121212121212121 0.004329004329004329 0.7316017316017317 0.2640692640692641 0.3333333333333333 0.3333333333333333 0.3333333333333333 0.4222222222222221 0.5555555555555555 0.02222222222222222 0.03703703703703703 0.9259259259259258 0.03703703703703703 0.3333333333333333 0.3333333333333333 0.3333333333333333 0.01397205588822355 0.9840319361277443 0.001996007984031936 0.1507936507936508 0.8412698412698412 0.007936507936507934 0.3333333333333333 0.3333333333333333 0.3333333333333333 0.03703703703703703 0.9259259259259258 0.03703703703703703 0.02325581395348837 0.9534883720930233 0.02325581395348837 0.8333333333333334 0.08333333333333333 0.08333333333333333 0.6666666666666667 0.1666666666666667 0.1666666666666667 0.6666666666666667 0.1666666666666667 0.1666666666666667 0.3333333333333333 0.3333333333333333 0.3333333333333333 0.2916666666666667 0.6666666666666667 0.04166666666666667 0.9242424242424243 0.06060606060606061 0.01515151515151515 0.3333333333333333 0.3333333333333333 0.3333333333333333 0.3333333333333333 0.3333333333333333 0.3333333333333333 0.8148148148148148 0.1481481481481481 0.03703703703703703 0.9924242424242425 0.003787878787878788 0.003787878787878788</probabilities>
		</cpt>
		<cpt id="Raf">
			<state id="x1" />
			<state id="x2" />
			<state id="x3" />
			<parents>PKA Mek</parents>
			<probabilities>0.203125 0.15625 0.640625 0.3333333333333333 0.6491228070175439 0.01754385964912281 0.002801120448179271 0.1204481792717087 0.8767507002801119 0.7184466019417475 0.1771844660194175 0.1043689320388349 0.3712121212121212 0.5530303030303031 0.07575757575757576 0.04166666666666666 0.4166666666666667 0.5416666666666666 0.8620689655172413 0.08620689655172414 0.05172413793103448 0.6666666666666667 0.1666666666666667 0.1666666666666667 0.3333333333333333 0.3333333333333333 0.3333333333333333</probabilities>
		</cpt>
		<cpt id="PKC">
			<state id="x1" />
			<state id="x2" />
			<state id="x3" />
			<parents>PKA Raf Mek</parents>
			<probabilities>0.6666666666666666 0.3095238095238095 0.02380952380952381 0.3333333333333334 0.6190476190476191 0.04761904761904762 0.3333333333333333 0.3333333333333333 0.3333333333333333 0.4848484848484849 0.4848484848484849 0.0303030303030303 0.4871794871794872 0.4871794871794872 0.02564102564102564 0.9555555555555554 0.02222222222222222 0.02222222222222222 0.9365079365079364 0.05555555555555555 0.007936507936507934 0.3333333333333333 0.3333333333333333 0.3333333333333333 0.9936507936507937 0.003174603174603175 0.003174603174603175 0.1418918918918919 0.6486486486486487 0.2094594594594595 0.2244897959183673 0.7040816326530611 0.07142857142857142 0.3333333333333333 0.3333333333333333 0.3333333333333333 0.2054794520547945 0.7808219178082192 0.0136986301369863 0.1780821917808219 0.7945205479452054 0.0273972602739726 0.3333333333333333 0.5833333333333334 0.08333333333333333 0.7121212121212122 0.2803030303030303 0.007575757575757576 0.1587301587301588 0.8253968253968256 0.01587301587301588 0.06666666666666668 0.8666666666666668 0.06666666666666668 0.87 0.12 0.01 0.1666666666666667 0.6666666666666667 0.1666666666666667 0.3333333333333333 0.3333333333333333 0.3333333333333333 0.8484848484848484 0.1212121212121212 0.0303030303030303 0.3333333333333333 0.3333333333333333 0.3333333333333333 0.3333333333333333 0.3333333333333333 0.3333333333333333 0.4761904761904762 0.4761904761904762 0.04761904761904762 0.3333333333333333 0.3333333333333333 0.3333333333333333 0.3333333333333333 0.3333333333333333 0.3333333333333333</probabilities>
		</cpt>
		<cpt id="Jnk">
			<state id="x1" />
			<state id="x2" />
			<state id="x3" />
			<parents>PKC PKA</parents>
			<probabilities>0.3240223463687151 0.2290502793296089 0.446927374301676 0.5200945626477541 0.4775413711583924 0.002364066193853428 0.9733333333333335 0.02333333333333334 0.003333333333333334 0.4696969696969697 0.5151515151515151 0.01515151515151515 0.6560283687943264 0.3432624113475178 0.0007092198581560285 0.9074074074074076 0.07407407407407408 0.01851851851851852 0.3333333333333333 0.3333333333333333 0.3333333333333333 0.02702702702702703 0.9324324324324325 0.04054054054054054 0.6666666666666667 0.1666666666666667 0.1666666666666667</probabilities>
		</cpt>
		<cpt id="P38">
			<state id="x1" />
			<state id="x2" />
			<state id="x3" />
			<parents>PKC PKA</parents>
			<probabilities>0.3240223463687151 0.06145251396648045 0.6145251396648045 0.9030732860520094 0.09456264775413711 0.002364066193853428 0.787878787878788 0.101010101010101 0.1111111111111111 0.6060606060606061 0.3787878787878788 0.01515151515151515 0.8262411347517732 0.1730496453900709 0.0007092198581560285 0.4117647058823529 0.05882352941176471 0.5294117647058824 0.3333333333333333 0.3333333333333333 0.3333333333333333 0.8177777777777778 0.1777777777777778 0.004444444444444444 0.6666666666666667 0.1666666666666667 0.1666666666666667</probabilities>
		</cpt>
		<cpt id="PIP3">
			<state id="x1" />
			<state id="x2" />
			<state id="x3" />
			<probabilities>0.222 0.447 0.331</probabilities>
		</cpt>
		<cpt id="PIP2">
			<state id="x1" />
			<state id="x2" />
			<state id="x3" />
			<parents>PIP3</parents>
			<probabilities>0.8558558558558559 0.1036036036036036 0.04054054054054054 0.8881431767337807 0.04250559284116331 0.06935123042505592 0.7824773413897281 0.175226586102719 0.04229607250755287</probabilities>
		</cpt>
		<cpt id="Plcg">
			<state id="x1" />
			<state id="x2" />
			<state id="x3" />
			<parents>PIP3 PIP2</parents>
			<probabilities>0.9421052631578947 0.03157894736842105 0.02631578947368421 0.05555555555555555 0.01388888888888889 0.9305555555555555 0.03333333333333333 0.03333333333333333 0.9333333333333335 0.9697732997481108 0.02267002518891688 0.007556675062972292 0.1578947368421053 0.1052631578947368 0.7368421052631579 0.01041666666666667 0.01041666666666667 0.9791666666666666 0.8957528957528957 0.1003861003861004 0.003861003861003861 0.5480225988700564 0.4463276836158191 0.005649717514124292 0.02222222222222222 0.08888888888888888 0.888888888888889</probabilities>
		</cpt>
	</nodes>
	<extensions>
		<genie version="1.0" app="GeNIe 3.0.5905.0 ACADEMIC" name="1000-2">
			<node id="PKC">
				<name>PKC</name>
				<interior color="e5f6f7" />
				<outline color="000080" />
				<font color="000000" name="Arial" size="8" />
				<position>490 10 562 58</position>
			</node>
			<node id="PKA">
				<name>PKA</name>
				<interior color="e5f6f7" />
				<outline color="000080" />
				<font color="000000" name="Arial" size="8" />
				<position>298 10 370 58</position>
			</node>
			<node id="Raf">
				<name>Raf</name>
				<interior color="e5f6f7" />
				<outline color="000080" />
				<font color="000000" name="Arial" size="8" />
				<position>394 10 466 58</position>
			</node>
			<node id="Mek">
				<name>Mek</name>
				<interior color="e5f6f7" />
				<outline color="000080" />
				<font color="000000" name="Arial" size="8" />
				<position>202 10 274 58</position>
			</node>
			<node id="Erk">
				<name>Erk</name>
				<interior color="e5f6f7" />
				<outline color="000080" />
				<font color="000000" name="Arial" size="8" />
				<position>10 10 82 58</position>
			</node>
			<node id="Akt">
				<name>Akt</name>
				<interior color="e5f6f7" />
				<outline color="000080" />
				<font color="000000" name="Arial" size="8" />
				<position>106 10 178 58</position>
			</node>
			<node id="Jnk">
				<name>Jnk</name>
				<interior color="e5f6f7" />
				<outline color="000080" />
				<font color="000000" name="Arial" size="8" />
				<position>586 10 658 58</position>
			</node>
			<node id="P38">
				<name>P38</name>
				<interior color="e5f6f7" />
				<outline color="000080" />
				<font color="000000" name="Arial" size="8" />
				<position>586 74 658 122</position>
			</node>
			<node id="Plcg">
				<name>Plcg</name>
				<interior color="e5f6f7" />
				<outline color="000080" />
				<font color="000000" name="Arial" size="8" />
				<position>202 74 274 122</position>
			</node>
			<node id="PIP3">
				<name>PIP3</name>
				<interior color="e5f6f7" />
				<outline color="000080" />
				<font color="000000" name="Arial" size="8" />
				<position>10 74 82 122</position>
			</node>
			<node id="PIP2">
				<name>PIP2</name>
				<interior color="e5f6f7" />
				<outline color="000080" />
				<font color="000000" name="Arial" size="8" />
				<position>106 74 178 122</position>
			</node>
			<textbox>
				<caption>Input file: 1000-2.txt\nData rows: 1000\nElapsed time: 0.031s\n\nLearning algorithm: Greedy ThickThinning\nAlgorithm parameters:\nMax parent count: 8\nNo background knowledge\n\nScore: -7607.83\nEM Log Likelihood: -7028.31</caption>
				<font color="000000" name="Arial" size="8" />
				<position>10 142 208 296</position>
			</textbox>
		</genie>
	</extensions>
</smile>
