<?xml version="1.0" encoding="UTF-8"?>
<!-- This network was created in GeNIe Academic, which can be used for academic teaching and research purposes only -->
<smile version="1.0" id="x000" numsamples="10000" discsamples="10000">
	<nodes>
		<cpt id="Raf">
			<state id="x1" />
			<state id="x2" />
			<state id="x3" />
			<probabilities>0.507 0.279 0.214</probabilities>
		</cpt>
		<cpt id="Erk">
			<state id="x1" />
			<state id="x2" />
			<state id="x3" />
			<probabilities>0.124 0.598 0.278</probabilities>
		</cpt>
		<cpt id="Akt">
			<state id="x1" />
			<state id="x2" />
			<state id="x3" />
			<parents>Erk</parents>
			<probabilities>0.6746666666666666 0.3226666666666667 0.002666666666666667 0.7842809364548495 0.2140468227424749 0.001672240802675585 0.1294964028776978 0.5539568345323741 0.3165467625899281</probabilities>
		</cpt>
		<cpt id="Jnk">
			<state id="x1" />
			<state id="x2" />
			<state id="x3" />
			<probabilities>0.539 0.377 0.08400000000000001</probabilities>
		</cpt>
		<cpt id="PKA">
			<state id="x1" />
			<state id="x2" />
			<state id="x3" />
			<parents>Raf Erk Akt Jnk</parents>
			<probabilities>0.16 0.5600000000000001 0.28 0.3555555555555555 0.6222222222222221 0.02222222222222222 0.8333333333333334 0.08333333333333333 0.08333333333333333 0.04761904761904762 0.9047619047619049 0.04761904761904762 0.2333333333333334 0.7333333333333334 0.03333333333333333 0.6666666666666667 0.1666666666666667 0.1666666666666667 0.3333333333333333 0.3333333333333333 0.3333333333333333 0.3333333333333333 0.3333333333333333 0.3333333333333333 0.3333333333333333 0.3333333333333333 0.3333333333333333 0.001883239171374765 0.623352165725047 0.3747645951035781 0.01834862385321101 0.9541284403669725 0.02752293577981652 0.1666666666666667 0.6666666666666667 0.1666666666666667 0.04347826086956522 0.7391304347826086 0.2173913043478261 0.1203703703703703 0.8703703703703702 0.009259259259259259 0.3333333333333333 0.3333333333333333 0.3333333333333333 0.3333333333333333 0.3333333333333333 0.3333333333333333 0.1666666666666667 0.6666666666666667 0.1666666666666667 0.3333333333333333 0.3333333333333333 0.3333333333333333 0.02222222222222222 0.6222222222222222 0.3555555555555555 0.03703703703703703 0.9259259259259258 0.03703703703703703 0.3333333333333333 0.3333333333333333 0.3333333333333333 0.006535947712418299 0.7516339869281045 0.2418300653594771 0.04301075268817205 0.9462365591397851 0.01075268817204301 0.3333333333333333 0.3333333333333333 0.3333333333333333 0.3333333333333333 0.3333333333333333 0.3333333333333333 0.4444444444444444 0.4444444444444444 0.1111111111111111 0.3333333333333333 0.3333333333333333 0.3333333333333333 0.3636363636363636 0.4545454545454546 0.1818181818181818 0.7222222222222222 0.2222222222222222 0.05555555555555556 0.8333333333333334 0.08333333333333333 0.08333333333333333 0.3333333333333333 0.5833333333333334 0.08333333333333333 0.5555555555555556 0.3888888888888889 0.05555555555555555 0.3333333333333333 0.3333333333333333 0.3333333333333333 0.3333333333333333 0.3333333333333333 0.3333333333333333 0.3333333333333333 0.3333333333333333 0.3333333333333333 0.3333333333333333 0.3333333333333333 0.3333333333333333 0.00392156862745098 0.8627450980392157 0.1333333333333334 0.04320987654320987 0.9506172839506173 0.006172839506172839 0.3333333333333333 0.3333333333333333 0.3333333333333333 0.1444444444444445 0.8444444444444446 0.01111111111111111 0.3137254901960784 0.6666666666666667 0.0196078431372549 0.8333333333333334 0.08333333333333333 0.08333333333333333 0.3333333333333333 0.3333333333333333 0.3333333333333333 0.3333333333333333 0.3333333333333333 0.3333333333333333 0.3333333333333333 0.3333333333333333 0.3333333333333333 0.03703703703703703 0.9259259259259258 0.03703703703703703 0.05555555555555556 0.888888888888889 0.05555555555555556 0.3333333333333333 0.3333333333333333 0.3333333333333333 0.01449275362318841 0.7101449275362319 0.2753623188405797 0.01587301587301588 0.9682539682539685 0.01587301587301588 0.3333333333333333 0.3333333333333333 0.3333333333333333 0.888888888888889 0.05555555555555556 0.05555555555555556 0.5833333333333334 0.3333333333333333 0.08333333333333333 0.8666666666666668 0.06666666666666668 0.06666666666666668 0.9333333333333332 0.03333333333333333 0.03333333333333333 0.8666666666666668 0.06666666666666668 0.06666666666666668 0.9393939393939393 0.0303030303030303 0.0303030303030303 0.9047619047619049 0.04761904761904762 0.04761904761904762 0.4444444444444444 0.4444444444444444 0.1111111111111111 0.9259259259259258 0.03703703703703703 0.03703703703703703 0.3333333333333333 0.3333333333333333 0.3333333333333333 0.3333333333333333 0.3333333333333333 0.3333333333333333 0.3333333333333333 0.3333333333333333 0.3333333333333333 0.04 0.84 0.12 0.08333333333333333 0.8958333333333334 0.02083333333333333 0.9047619047619049 0.04761904761904762 0.04761904761904762 0.4814814814814814 0.4814814814814814 0.03703703703703703 0.3939393939393939 0.5757575757575758 0.0303030303030303 0.8666666666666668 0.06666666666666668 0.06666666666666668 0.3333333333333333 0.3333333333333333 0.3333333333333333 0.3333333333333333 0.3333333333333333 0.3333333333333333 0.3333333333333333 0.3333333333333333 0.3333333333333333 0.1666666666666667 0.6666666666666667 0.1666666666666667 0.3333333333333333 0.3333333333333333 0.3333333333333333 0.3333333333333333 0.3333333333333333 0.3333333333333333 0.2666666666666667 0.6666666666666666 0.06666666666666667 0.2564102564102564 0.717948717948718 0.02564102564102564 0.888888888888889 0.05555555555555556 0.05555555555555556 0.9666666666666668 0.01666666666666667 0.01666666666666667 0.9666666666666668 0.01666666666666667 0.01666666666666667 0.9819819819819818 0.009009009009009007 0.009009009009009007</probabilities>
		</cpt>
		<cpt id="PKC">
			<state id="x1" />
			<state id="x2" />
			<state id="x3" />
			<parents>PKA Raf Jnk</parents>
			<probabilities>0.2222222222222222 0.7222222222222222 0.05555555555555556 0.4 0.4 0.2 0.8666666666666668 0.06666666666666668 0.06666666666666668 0.6222222222222221 0.3555555555555555 0.02222222222222222 0.5 0.375 0.125 0.9393939393939393 0.0303030303030303 0.0303030303030303 0.7575757575757576 0.2348484848484848 0.007575757575757574 0.9494949494949495 0.0404040404040404 0.0101010101010101 0.9904761904761906 0.004761904761904762 0.004761904761904762 0.2628865979381443 0.7268041237113402 0.01030927835051546 0.1842105263157895 0.3947368421052632 0.4210526315789473 0.1666666666666667 0.1666666666666667 0.6666666666666666 0.2093023255813953 0.7829457364341085 0.007751937984496124 0.3076923076923077 0.5714285714285715 0.1208791208791209 0.3333333333333333 0.3333333333333333 0.3333333333333333 0.6036036036036037 0.3873873873873874 0.009009009009009009 0.4301075268817205 0.5591397849462366 0.01075268817204301 0.3333333333333333 0.3333333333333333 0.3333333333333333 0.9473684210526315 0.04210526315789474 0.01052631578947368 0.3333333333333333 0.3333333333333333 0.3333333333333333 0.3333333333333333 0.3333333333333333 0.3333333333333333 0.9666666666666668 0.01666666666666667 0.01666666666666667 0.3333333333333333 0.3333333333333333 0.3333333333333333 0.3333333333333333 0.3333333333333333 0.3333333333333333 0.6666666666666667 0.2666666666666667 0.06666666666666667 0.3333333333333333 0.3333333333333333 0.3333333333333333 0.3333333333333333 0.3333333333333333 0.3333333333333333</probabilities>
		</cpt>
		<cpt id="Mek">
			<state id="x1" />
			<state id="x2" />
			<state id="x3" />
			<parents>PKC PKA Raf Erk</parents>
			<probabilities>0.8148148148148148 0.1481481481481481 0.03703703703703703 0.7777777777777777 0.1111111111111111 0.1111111111111111 0.6666666666666667 0.1666666666666667 0.1666666666666667 0.8611111111111109 0.1111111111111111 0.02777777777777777 0.5 0.3333333333333333 0.1666666666666667 0.0303030303030303 0.1212121212121212 0.8484848484848485 0.977777777777778 0.01111111111111111 0.01111111111111111 0.1228070175438597 0.01754385964912281 0.8596491228070174 0.003831417624521073 0.003831417624521073 0.9923371647509578 0.7575757575757576 0.2121212121212121 0.0303030303030303 0.7514124293785309 0.2429378531073446 0.005649717514124292 0.543859649122807 0.4385964912280702 0.01754385964912281 0.6666666666666667 0.1666666666666667 0.1666666666666667 0.310077519379845 0.6821705426356589 0.007751937984496124 0.3333333333333333 0.641025641025641 0.02564102564102564 0.6666666666666667 0.1666666666666667 0.1666666666666667 0.8974358974358975 0.08974358974358976 0.01282051282051282 0.5555555555555556 0.3333333333333333 0.1111111111111111 0.9166666666666669 0.04166666666666667 0.04166666666666667 0.9901960784313727 0.004901960784313726 0.004901960784313726 0.9629629629629631 0.01851851851851852 0.01851851851851852 0.7777777777777777 0.1111111111111111 0.1111111111111111 0.9444444444444443 0.02777777777777777 0.02777777777777777 0.9047619047619049 0.04761904761904762 0.04761904761904762 0.3333333333333333 0.3333333333333333 0.3333333333333333 0.7777777777777777 0.1111111111111111 0.1111111111111111 0.6666666666666667 0.1666666666666667 0.1666666666666667 0.888888888888889 0.05555555555555556 0.05555555555555556 0.4666666666666667 0.4666666666666667 0.06666666666666667 0.1666666666666667 0.6666666666666667 0.1666666666666667 0.5833333333333334 0.3333333333333333 0.08333333333333333 0.04166666666666667 0.9166666666666669 0.04166666666666667 0.1666666666666667 0.6666666666666667 0.1666666666666667 0.9333333333333332 0.03333333333333333 0.03333333333333333 0.1111111111111111 0.4444444444444444 0.4444444444444444 0.3333333333333333 0.3333333333333333 0.3333333333333333 0.8518518518518519 0.1296296296296296 0.01851851851851852 0.6733780760626398 0.3243847874720358 0.002237136465324385 0.6987179487179487 0.2948717948717948 0.006410256410256409 0.6333333333333333 0.3333333333333334 0.03333333333333333 0.2102102102102102 0.7867867867867869 0.003003003003003003 0.2380952380952381 0.7523809523809524 0.009523809523809523 0.3333333333333333 0.3333333333333333 0.3333333333333333 0.4 0.45 0.15 0.3636363636363636 0.4545454545454546 0.1818181818181818 0.3333333333333333 0.3333333333333333 0.3333333333333333 0.888888888888889 0.05555555555555556 0.05555555555555556 0.3333333333333333 0.3333333333333333 0.3333333333333333 0.3333333333333333 0.3333333333333333 0.3333333333333333 0.3333333333333333 0.3333333333333333 0.3333333333333333 0.3333333333333333 0.3333333333333333 0.3333333333333333 0.3333333333333333 0.3333333333333333 0.3333333333333333 0.6666666666666667 0.1666666666666667 0.1666666666666667 0.3333333333333333 0.3333333333333333 0.3333333333333333 0.7777777777777777 0.1111111111111111 0.1111111111111111 0.1666666666666667 0.6666666666666667 0.1666666666666667 0.3333333333333333 0.3333333333333333 0.3333333333333333 0.1666666666666667 0.6666666666666667 0.1666666666666667 0.1666666666666667 0.6666666666666667 0.1666666666666667 0.3333333333333333 0.3333333333333333 0.3333333333333333 0.3333333333333333 0.3333333333333333 0.3333333333333333 0.3333333333333333 0.3333333333333333 0.3333333333333333 0.3333333333333333 0.3333333333333333 0.3333333333333333 0.8333333333333333 0.1333333333333333 0.03333333333333333 0.7175141242937852 0.2768361581920903 0.005649717514124292 0.9019607843137255 0.07843137254901961 0.0196078431372549 0.3333333333333333 0.3333333333333333 0.3333333333333333 0.1481481481481481 0.8148148148148148 0.03703703703703703 0.06666666666666668 0.8666666666666668 0.06666666666666668 0.3333333333333333 0.3333333333333333 0.3333333333333333 0.3333333333333333 0.3333333333333333 0.3333333333333333 0.3333333333333333 0.3333333333333333 0.3333333333333333 0.3333333333333333 0.3333333333333333 0.3333333333333333 0.7777777777777777 0.1111111111111111 0.1111111111111111 0.3333333333333333 0.3333333333333333 0.3333333333333333 0.3333333333333333 0.3333333333333333 0.3333333333333333 0.3333333333333333 0.3333333333333333 0.3333333333333333 0.3333333333333333 0.3333333333333333 0.3333333333333333 0.3333333333333333 0.3333333333333333 0.3333333333333333 0.3333333333333333 0.3333333333333333 0.3333333333333333 0.3333333333333333 0.3333333333333333 0.3333333333333333</probabilities>
		</cpt>
		<cpt id="P38">
			<state id="x1" />
			<state id="x2" />
			<state id="x3" />
			<parents>PKC PKA Akt</parents>
			<probabilities>0.3495934959349594 0.008130081300813007 0.6422764227642276 0.3695652173913043 0.04347826086956522 0.5869565217391304 0.2588235294117647 0.05882352941176471 0.6823529411764706 0.9465408805031448 0.05031446540880503 0.003144654088050315 0.9351851851851853 0.0601851851851852 0.00462962962962963 0.3333333333333333 0.3333333333333333 0.3333333333333333 0.8666666666666667 0.08888888888888889 0.04444444444444445 0.5217391304347826 0.1739130434782609 0.3043478260869565 0.3333333333333333 0.3333333333333333 0.3333333333333333 0.6458333333333334 0.3333333333333333 0.02083333333333333 0.6666666666666667 0.3137254901960784 0.0196078431372549 0.1666666666666667 0.6666666666666667 0.1666666666666667 0.8245614035087719 0.1741854636591479 0.0012531328320802 0.8370927318295739 0.1604010025062657 0.002506265664160401 0.5833333333333334 0.3333333333333333 0.08333333333333333 0.3333333333333333 0.04761904761904762 0.619047619047619 0.3333333333333333 0.3333333333333333 0.3333333333333333 0.3333333333333333 0.3333333333333333 0.3333333333333333 0.8333333333333334 0.08333333333333333 0.08333333333333333 0.4444444444444444 0.4444444444444444 0.1111111111111111 0.3333333333333333 0.3333333333333333 0.3333333333333333 0.8051282051282052 0.1897435897435898 0.005128205128205128 0.7916666666666669 0.1979166666666667 0.01041666666666667 0.3333333333333333 0.3333333333333333 0.3333333333333333 0.1666666666666667 0.6666666666666667 0.1666666666666667 0.1666666666666667 0.6666666666666667 0.1666666666666667 0.3333333333333333 0.3333333333333333 0.3333333333333333</probabilities>
		</cpt>
		<cpt id="PIP2">
			<state id="x1" />
			<state id="x2" />
			<state id="x3" />
			<probabilities>0.845 0.1 0.055</probabilities>
		</cpt>
		<cpt id="PIP3">
			<state id="x1" />
			<state id="x2" />
			<state id="x3" />
			<parents>PIP2</parents>
			<probabilities>0.2366863905325444 0.4331360946745562 0.3301775147928994 0.18 0.19 0.63 0.3090909090909091 0.4 0.2909090909090909</probabilities>
		</cpt>
		<cpt id="Plcg">
			<state id="x1" />
			<state id="x2" />
			<state id="x3" />
			<parents>PIP3 PIP2</parents>
			<probabilities>0.925 0.03 0.045 0.07017543859649122 0.01754385964912281 0.9122807017543858 0.01851851851851852 0.01851851851851852 0.9629629629629628 0.9617486338797814 0.0273224043715847 0.01092896174863388 0.2105263157894737 0.05263157894736842 0.7368421052631579 0.0144927536231884 0.0144927536231884 0.9710144927536231 0.8833333333333333 0.1154761904761905 0.00119047619047619 0.5677083333333334 0.4270833333333333 0.005208333333333333 0.196078431372549 0.0196078431372549 0.7843137254901961</probabilities>
		</cpt>
	</nodes>
	<extensions>
		<genie version="1.0" app="GeNIe 3.0.5905.0 ACADEMIC" name="1000">
			<node id="PKC">
				<name>PKC</name>
				<interior color="e5f6f7" />
				<outline color="000080" />
				<font color="000000" name="Arial" size="8" />
				<position>28 144 100 192</position>
			</node>
			<node id="PKA">
				<name>PKA</name>
				<interior color="e5f6f7" />
				<outline color="000080" />
				<font color="000000" name="Arial" size="8" />
				<position>60 72 132 120</position>
			</node>
			<node id="Raf">
				<name>Raf</name>
				<interior color="e5f6f7" />
				<outline color="000080" />
				<font color="000000" name="Arial" size="8" />
				<position>146 23 218 71</position>
			</node>
			<node id="Mek">
				<name>Mek</name>
				<interior color="e5f6f7" />
				<outline color="000080" />
				<font color="000000" name="Arial" size="8" />
				<position>257 12 329 60</position>
			</node>
			<node id="Erk">
				<name>Erk</name>
				<interior color="e5f6f7" />
				<outline color="000080" />
				<font color="000000" name="Arial" size="8" />
				<position>360 43 432 91</position>
			</node>
			<node id="Akt">
				<name>Akt</name>
				<interior color="e5f6f7" />
				<outline color="000080" />
				<font color="000000" name="Arial" size="8" />
				<position>421 107 493 155</position>
			</node>
			<node id="Jnk">
				<name>Jnk</name>
				<interior color="e5f6f7" />
				<outline color="000080" />
				<font color="000000" name="Arial" size="8" />
				<position>421 181 493 229</position>
			</node>
			<node id="P38">
				<name>P38</name>
				<interior color="e5f6f7" />
				<outline color="000080" />
				<font color="000000" name="Arial" size="8" />
				<position>360 245 432 293</position>
			</node>
			<node id="Plcg">
				<name>Plcg</name>
				<interior color="e5f6f7" />
				<outline color="000080" />
				<font color="000000" name="Arial" size="8" />
				<position>257 276 329 324</position>
			</node>
			<node id="PIP3">
				<name>PIP3</name>
				<interior color="e5f6f7" />
				<outline color="000080" />
				<font color="000000" name="Arial" size="8" />
				<position>146 265 218 313</position>
			</node>
			<node id="PIP2">
				<name>PIP2</name>
				<interior color="e5f6f7" />
				<outline color="000080" />
				<font color="000000" name="Arial" size="8" />
				<position>60 216 132 264</position>
			</node>
			<textbox>
				<caption>Input file: 1000.txt\nData rows: 1000\nElapsed time: 0.031s\n\nLearning algorithm: PC\nAlgorithm parameters:\nMax adjacency: 8\nSignificance: 0.05\nMax search time: 0\nNo background knowledge\n\nEM Log Likelihood: -7377.76</caption>
				<font color="000000" name="Arial" size="8" />
				<position>10 344 144 512</position>
			</textbox>
		</genie>
	</extensions>
</smile>
