<?xml version="1.0" encoding="UTF-8"?>
<!-- This network was created in GeNIe Academic, which can be used for academic teaching and research purposes only -->
<smile version="1.0" id="x000" numsamples="10000" discsamples="10000">
	<nodes>
		<cpt id="Raf">
			<state id="x1" />
			<state id="x2" />
			<state id="x3" />
			<probabilities>0.507 0.279 0.214</probabilities>
		</cpt>
		<cpt id="Mek">
			<state id="x1" />
			<state id="x2" />
			<state id="x3" />
			<parents>Raf</parents>
			<probabilities>0.778215223097113 0.2211286089238846 0.0006561679790026248 0.3225806451612903 0.6415770609318996 0.03584229390681003 0.397196261682243 0.09345794392523364 0.5093457943925234</probabilities>
		</cpt>
		<cpt id="Akt">
			<state id="x1" />
			<state id="x2" />
			<state id="x3" />
			<parents>Mek</parents>
			<probabilities>0.6824561403508772 0.3157894736842105 0.001754385964912281 0.6109324758842444 0.3729903536977492 0.01607717041800643 0.08403361344537814 0.2184873949579832 0.6974789915966386</probabilities>
		</cpt>
		<cpt id="Erk">
			<state id="x1" />
			<state id="x2" />
			<state id="x3" />
			<parents>Raf Mek Akt</parents>
			<probabilities>0.1357142857142857 0.7999999999999999 0.06428571428571428 0.1228070175438596 0.3508771929824561 0.5263157894736842 0.1666666666666667 0.1666666666666667 0.6666666666666666 0.05714285714285714 0.8857142857142857 0.05714285714285714 0.05 0.45 0.5 0.1111111111111111 0.4444444444444444 0.4444444444444444 0.3333333333333333 0.3333333333333333 0.3333333333333333 0.3333333333333333 0.3333333333333333 0.3333333333333333 0.3333333333333333 0.3333333333333333 0.3333333333333333 0.2586206896551724 0.6724137931034483 0.06896551724137931 0.1875 0.375 0.4375 0.3333333333333333 0.3333333333333333 0.3333333333333333 0.03603603603603604 0.8828828828828829 0.08108108108108109 0.03076923076923077 0.5384615384615385 0.4307692307692308 0.08333333333333333 0.08333333333333333 0.8333333333333334 0.3333333333333333 0.3333333333333333 0.3333333333333333 0.1666666666666667 0.6666666666666667 0.1666666666666667 0.03333333333333333 0.03333333333333333 0.9333333333333335 0.4487179487179487 0.5448717948717949 0.00641025641025641 0.4705882352941176 0.2352941176470588 0.2941176470588235 0.3333333333333333 0.3333333333333333 0.3333333333333333 0.03333333333333333 0.8333333333333333 0.1333333333333333 0.02777777777777778 0.361111111111111 0.611111111111111 0.3333333333333333 0.3333333333333333 0.3333333333333333 0.0303030303030303 0.9393939393939393 0.0303030303030303 0.01282051282051282 0.3974358974358975 0.5897435897435898 0.004444444444444444 0.004444444444444444 0.9911111111111112</probabilities>
		</cpt>
		<cpt id="PKA">
			<state id="x1" />
			<state id="x2" />
			<state id="x3" />
			<parents>Mek Erk Akt</parents>
			<probabilities>0.5526315789473684 0.3289473684210526 0.1184210526315789 0.6036036036036037 0.3873873873873874 0.009009009009009009 0.3333333333333333 0.3333333333333333 0.3333333333333333 0.006872852233676976 0.7079037800687286 0.2852233676975945 0.1166666666666667 0.8 0.08333333333333333 0.3333333333333333 0.3333333333333333 0.3333333333333333 0.01449275362318841 0.7536231884057971 0.2318840579710145 0.00392156862745098 0.7686274509803922 0.2274509803921569 0.6666666666666667 0.1666666666666667 0.1666666666666667 0.4814814814814814 0.4814814814814814 0.03703703703703703 0.06666666666666668 0.8666666666666668 0.06666666666666668 0.3333333333333333 0.3333333333333333 0.3333333333333333 0.01972386587771203 0.9783037475345167 0.001972386587771203 0.1954022988505747 0.7988505747126435 0.005747126436781607 0.1666666666666667 0.6666666666666667 0.1666666666666667 0.02222222222222222 0.9555555555555554 0.02222222222222222 0.02380952380952381 0.9702380952380952 0.005952380952380952 0.4666666666666667 0.4666666666666667 0.06666666666666667 0.3333333333333333 0.3333333333333333 0.3333333333333333 0.3333333333333333 0.3333333333333333 0.3333333333333333 0.3333333333333333 0.3333333333333333 0.3333333333333333 0.6666666666666666 0.303030303030303 0.0303030303030303 0.9444444444444443 0.02777777777777777 0.02777777777777777 0.3333333333333333 0.3333333333333333 0.3333333333333333 0.3333333333333333 0.3333333333333333 0.3333333333333333 0.7708333333333334 0.2083333333333333 0.02083333333333333 0.9920634920634922 0.003968253968253969 0.003968253968253969</probabilities>
		</cpt>
		<cpt id="Jnk">
			<state id="x1" />
			<state id="x2" />
			<state id="x3" />
			<parents>PKA</parents>
			<probabilities>0.2980769230769231 0.3028846153846154 0.3990384615384616 0.5350223546944859 0.4634873323397913 0.001490312965722802 0.9699453551912568 0.0273224043715847 0.00273224043715847</probabilities>
		</cpt>
		<cpt id="PKC">
			<state id="x1" />
			<state id="x2" />
			<state id="x3" />
			<parents>PKA Raf Jnk</parents>
			<probabilities>0.2222222222222222 0.7222222222222222 0.05555555555555556 0.4 0.4 0.2 0.8666666666666668 0.06666666666666668 0.06666666666666668 0.6222222222222221 0.3555555555555555 0.02222222222222222 0.5 0.375 0.125 0.9393939393939393 0.0303030303030303 0.0303030303030303 0.7575757575757576 0.2348484848484848 0.007575757575757574 0.9494949494949495 0.0404040404040404 0.0101010101010101 0.9904761904761906 0.004761904761904762 0.004761904761904762 0.2628865979381443 0.7268041237113402 0.01030927835051546 0.1842105263157895 0.3947368421052632 0.4210526315789473 0.1666666666666667 0.1666666666666667 0.6666666666666666 0.2093023255813953 0.7829457364341085 0.007751937984496124 0.3076923076923077 0.5714285714285715 0.1208791208791209 0.3333333333333333 0.3333333333333333 0.3333333333333333 0.6036036036036037 0.3873873873873874 0.009009009009009009 0.4301075268817205 0.5591397849462366 0.01075268817204301 0.3333333333333333 0.3333333333333333 0.3333333333333333 0.9473684210526315 0.04210526315789474 0.01052631578947368 0.3333333333333333 0.3333333333333333 0.3333333333333333 0.3333333333333333 0.3333333333333333 0.3333333333333333 0.9666666666666668 0.01666666666666667 0.01666666666666667 0.3333333333333333 0.3333333333333333 0.3333333333333333 0.3333333333333333 0.3333333333333333 0.3333333333333333 0.6666666666666667 0.2666666666666667 0.06666666666666667 0.3333333333333333 0.3333333333333333 0.3333333333333333 0.3333333333333333 0.3333333333333333 0.3333333333333333</probabilities>
		</cpt>
		<cpt id="P38">
			<state id="x1" />
			<state id="x2" />
			<state id="x3" />
			<parents>PKC PKA</parents>
			<probabilities>0.3099415204678362 0.04093567251461988 0.6491228070175439 0.9453860640301317 0.0527306967984934 0.001883239171374764 0.7964601769911505 0.1061946902654867 0.09734513274336283 0.6464646464646464 0.3434343434343435 0.0101010101010101 0.8287614297589361 0.170407315045719 0.000831255195344971 0.3333333333333333 0.04761904761904762 0.619047619047619 0.7222222222222222 0.2222222222222222 0.05555555555555556 0.8055555555555556 0.1909722222222222 0.003472222222222222 0.1111111111111111 0.7777777777777777 0.1111111111111111</probabilities>
		</cpt>
		<cpt id="PIP3">
			<state id="x1" />
			<state id="x2" />
			<state id="x3" />
			<probabilities>0.235 0.407 0.358</probabilities>
		</cpt>
		<cpt id="PIP2">
			<state id="x1" />
			<state id="x2" />
			<state id="x3" />
			<parents>PIP3</parents>
			<probabilities>0.851063829787234 0.07659574468085106 0.0723404255319149 0.8992628992628993 0.04668304668304668 0.05405405405405405 0.7793296089385475 0.1759776536312849 0.0446927374301676</probabilities>
		</cpt>
		<cpt id="Plcg">
			<state id="x1" />
			<state id="x2" />
			<state id="x3" />
			<parents>PIP3 PIP2</parents>
			<probabilities>0.925 0.03 0.045 0.07017543859649122 0.01754385964912281 0.9122807017543858 0.01851851851851852 0.01851851851851852 0.9629629629629628 0.9617486338797814 0.0273224043715847 0.01092896174863388 0.2105263157894737 0.05263157894736842 0.7368421052631579 0.0144927536231884 0.0144927536231884 0.9710144927536231 0.8833333333333333 0.1154761904761905 0.00119047619047619 0.5677083333333334 0.4270833333333333 0.005208333333333333 0.196078431372549 0.0196078431372549 0.7843137254901961</probabilities>
		</cpt>
	</nodes>
	<extensions>
		<genie version="1.0" app="GeNIe 3.0.5905.0 ACADEMIC" name="1000">
			<node id="PKC">
				<name>PKC</name>
				<interior color="e5f6f7" />
				<outline color="000080" />
				<font color="000000" name="Arial" size="8" />
				<position>586 10 658 58</position>
			</node>
			<node id="PKA">
				<name>PKA</name>
				<interior color="e5f6f7" />
				<outline color="000080" />
				<font color="000000" name="Arial" size="8" />
				<position>394 10 466 58</position>
			</node>
			<node id="Raf">
				<name>Raf</name>
				<interior color="e5f6f7" />
				<outline color="000080" />
				<font color="000000" name="Arial" size="8" />
				<position>10 10 82 58</position>
			</node>
			<node id="Mek">
				<name>Mek</name>
				<interior color="e5f6f7" />
				<outline color="000080" />
				<font color="000000" name="Arial" size="8" />
				<position>106 10 178 58</position>
			</node>
			<node id="Erk">
				<name>Erk</name>
				<interior color="e5f6f7" />
				<outline color="000080" />
				<font color="000000" name="Arial" size="8" />
				<position>298 10 370 58</position>
			</node>
			<node id="Akt">
				<name>Akt</name>
				<interior color="e5f6f7" />
				<outline color="000080" />
				<font color="000000" name="Arial" size="8" />
				<position>202 10 274 58</position>
			</node>
			<node id="Jnk">
				<name>Jnk</name>
				<interior color="e5f6f7" />
				<outline color="000080" />
				<font color="000000" name="Arial" size="8" />
				<position>490 10 562 58</position>
			</node>
			<node id="P38">
				<name>P38</name>
				<interior color="e5f6f7" />
				<outline color="000080" />
				<font color="000000" name="Arial" size="8" />
				<position>682 10 754 58</position>
			</node>
			<node id="Plcg">
				<name>Plcg</name>
				<interior color="e5f6f7" />
				<outline color="000080" />
				<font color="000000" name="Arial" size="8" />
				<position>202 74 274 122</position>
			</node>
			<node id="PIP3">
				<name>PIP3</name>
				<interior color="e5f6f7" />
				<outline color="000080" />
				<font color="000000" name="Arial" size="8" />
				<position>10 74 82 122</position>
			</node>
			<node id="PIP2">
				<name>PIP2</name>
				<interior color="e5f6f7" />
				<outline color="000080" />
				<font color="000000" name="Arial" size="8" />
				<position>106 74 178 122</position>
			</node>
			<textbox>
				<caption>Input file: 1000.txt\nData rows: 1000\nElapsed time: 0.016s\n\nLearning algorithm: Greedy ThickThinning\nAlgorithm parameters:\nMax parent count: 8\nNo background knowledge\n\nScore: -7811.07\nEM Log Likelihood: -7208.63</caption>
				<font color="000000" name="Arial" size="8" />
				<position>10 142 208 296</position>
			</textbox>
		</genie>
	</extensions>
</smile>
