<?xml version="1.0" encoding="UTF-8"?>
<!-- This network was created in GeNIe Academic, which can be used for academic teaching and research purposes only -->
<smile version="1.0" id="x000_3" numsamples="10000" discsamples="10000">
	<nodes>
		<cpt id="Mek">
			<state id="x1" />
			<state id="x2" />
			<state id="x3" />
			<probabilities>0.5760000000000001 0.319 0.105</probabilities>
		</cpt>
		<cpt id="Akt">
			<state id="x1" />
			<state id="x2" />
			<state id="x3" />
			<parents>Mek</parents>
			<probabilities>0.671875 0.3229166666666666 0.005208333333333333 0.677115987460815 0.3072100313479624 0.01567398119122257 0.08571428571428572 0.2666666666666667 0.6476190476190476</probabilities>
		</cpt>
		<cpt id="Erk">
			<state id="x1" />
			<state id="x2" />
			<state id="x3" />
			<parents>Mek Akt</parents>
			<probabilities>0.2118863049095607 0.7441860465116279 0.04392764857881137 0.2258064516129032 0.3440860215053764 0.4301075268817205 0.08333333333333333 0.08333333333333333 0.8333333333333334 0.08333333333333333 0.8472222222222222 0.06944444444444445 0.0510204081632653 0.4183673469387755 0.5306122448979591 0.05555555555555555 0.05555555555555555 0.8888888888888888 0.03333333333333333 0.9333333333333332 0.03333333333333333 0.01149425287356322 0.4942528735632184 0.4942528735632184 0.004830917874396135 0.004830917874396135 0.9903381642512077</probabilities>
		</cpt>
		<cpt id="PKA">
			<state id="x1" />
			<state id="x2" />
			<state id="x3" />
			<parents>Mek Erk Akt</parents>
			<probabilities>0.4268292682926829 0.475609756097561 0.0975609756097561 0.5426356589147286 0.4496124031007752 0.007751937984496124 0.3333333333333333 0.3333333333333333 0.3333333333333333 0.01041666666666667 0.7638888888888888 0.2256944444444444 0.171875 0.765625 0.0625 0.3333333333333333 0.3333333333333333 0.3333333333333333 0.01851851851851852 0.8518518518518519 0.1296296296296296 0.004115226337448559 0.7325102880658436 0.2633744855967078 0.5833333333333334 0.3333333333333333 0.08333333333333333 0.2807017543859649 0.7017543859649122 0.01754385964912281 0.7222222222222222 0.2222222222222222 0.05555555555555556 0.3333333333333333 0.3333333333333333 0.3333333333333333 0.02355072463768115 0.9746376811594202 0.00181159420289855 0.1031746031746031 0.8888888888888887 0.007936507936507934 0.3333333333333333 0.3333333333333333 0.3333333333333333 0.02083333333333333 0.9583333333333334 0.02083333333333333 0.01923076923076923 0.9615384615384616 0.01923076923076923 0.888888888888889 0.05555555555555556 0.05555555555555556 0.3333333333333333 0.3333333333333333 0.3333333333333333 0.3333333333333333 0.3333333333333333 0.3333333333333333 0.3333333333333333 0.3333333333333333 0.3333333333333333 0.7333333333333334 0.2333333333333334 0.03333333333333333 0.8222222222222221 0.1555555555555555 0.02222222222222222 0.3333333333333333 0.3333333333333333 0.3333333333333333 0.3333333333333333 0.3333333333333333 0.3333333333333333 0.7555555555555554 0.2222222222222222 0.02222222222222222 0.9903381642512079 0.004830917874396136 0.004830917874396136</probabilities>
		</cpt>
		<cpt id="Raf">
			<state id="x1" />
			<state id="x2" />
			<state id="x3" />
			<parents>PKA Mek</parents>
			<probabilities>0.2837837837837838 0.08108108108108109 0.6351351351351352 0.3055555555555556 0.6805555555555556 0.01388888888888889 0.003367003367003367 0.1245791245791246 0.8720538720538721 0.7512437810945274 0.1368159203980099 0.1119402985074627 0.3898305084745763 0.5423728813559322 0.06779661016949153 0.04166666666666666 0.2916666666666667 0.6666666666666666 0.75 0.21 0.04 0.6666666666666667 0.1666666666666667 0.1666666666666667 0.3333333333333333 0.3333333333333333 0.3333333333333333</probabilities>
		</cpt>
		<cpt id="PKC">
			<state id="x1" />
			<state id="x2" />
			<state id="x3" />
			<parents>PKA Raf Mek</parents>
			<probabilities>0.3809523809523809 0.5714285714285714 0.04761904761904762 0.6666666666666667 0.2916666666666667 0.04166666666666667 0.3333333333333333 0.3333333333333333 0.3333333333333333 0.4761904761904762 0.4761904761904762 0.04761904761904762 0.125 0.8125 0.0625 0.9487179487179487 0.02564102564102564 0.02564102564102564 0.7569444444444443 0.2361111111111111 0.006944444444444442 0.3333333333333333 0.3333333333333333 0.3333333333333333 0.9808429118773947 0.01532567049808429 0.003831417624521073 0.1788079470198675 0.6125827814569537 0.2086092715231788 0.1565217391304348 0.6956521739130435 0.1478260869565217 0.3333333333333333 0.3333333333333333 0.3333333333333333 0.2916666666666666 0.7023809523809524 0.005952380952380952 0.16875 0.7875000000000001 0.04375 0.1111111111111111 0.7777777777777777 0.1111111111111111 0.7463768115942028 0.2463768115942029 0.007246376811594201 0.1111111111111111 0.8730158730158731 0.01587301587301588 0.05555555555555556 0.888888888888889 0.05555555555555556 0.8666666666666667 0.1066666666666667 0.02666666666666667 0.6666666666666667 0.1666666666666667 0.1666666666666667 0.3333333333333333 0.3333333333333333 0.3333333333333333 0.9242424242424243 0.06060606060606061 0.01515151515151515 0.3333333333333333 0.3333333333333333 0.3333333333333333 0.3333333333333333 0.3333333333333333 0.3333333333333333 0.8666666666666668 0.06666666666666668 0.06666666666666668 0.3333333333333333 0.3333333333333333 0.3333333333333333 0.3333333333333333 0.3333333333333333 0.3333333333333333</probabilities>
		</cpt>
		<cpt id="Jnk">
			<state id="x1" />
			<state id="x2" />
			<state id="x3" />
			<parents>PKC PKA</parents>
			<probabilities>0.2649006622516556 0.2847682119205298 0.4503311258278146 0.581140350877193 0.4166666666666667 0.002192982456140351 0.9816849816849818 0.01465201465201465 0.003663003663003663 0.5891472868217054 0.4031007751937984 0.007751937984496124 0.6345467523197715 0.364739471805853 0.0007137758743754461 0.7333333333333334 0.2333333333333334 0.03333333333333333 0.1111111111111111 0.7777777777777777 0.1111111111111111 0.04597701149425287 0.9310344827586207 0.02298850574712644 0.1111111111111111 0.7777777777777777 0.1111111111111111</probabilities>
		</cpt>
		<cpt id="P38">
			<state id="x1" />
			<state id="x2" />
			<state id="x3" />
			<parents>PKC PKA</parents>
			<probabilities>0.3178807947019868 0.08609271523178808 0.5960264900662252 0.9429824561403508 0.05482456140350877 0.00219298245614035 0.8555555555555556 0.08888888888888889 0.05555555555555556 0.6821705426356589 0.310077519379845 0.007751937984496124 0.7972876516773733 0.2019985724482513 0.0007137758743754461 0.4444444444444444 0.2222222222222222 0.3333333333333333 0.7777777777777777 0.1111111111111111 0.1111111111111111 0.787878787878788 0.2083333333333334 0.003787878787878788 0.7777777777777777 0.1111111111111111 0.1111111111111111</probabilities>
		</cpt>
		<cpt id="PIP3">
			<state id="x1" />
			<state id="x2" />
			<state id="x3" />
			<probabilities>0.217 0.446 0.337</probabilities>
		</cpt>
		<cpt id="PIP2">
			<state id="x1" />
			<state id="x2" />
			<state id="x3" />
			<parents>PIP3</parents>
			<probabilities>0.8709677419354839 0.06912442396313365 0.05990783410138249 0.8901345291479821 0.0515695067264574 0.05829596412556054 0.7774480712166172 0.1632047477744807 0.05934718100890208</probabilities>
		</cpt>
		<cpt id="Plcg">
			<state id="x1" />
			<state id="x2" />
			<state id="x3" />
			<parents>PIP3 PIP2</parents>
			<probabilities>0.9047619047619047 0.02645502645502645 0.06878306878306878 0.08333333333333333 0.02083333333333333 0.8958333333333334 0.02380952380952381 0.02380952380952381 0.9523809523809523 0.9496221662468514 0.04030226700251889 0.01007556675062972 0.1739130434782609 0.04347826086956522 0.7826086956521738 0.01234567901234568 0.01234567901234568 0.9753086419753085 0.8833967046894804 0.1153358681875792 0.001267427122940431 0.6130952380952381 0.3809523809523809 0.005952380952380952 0.1 0.1 0.8</probabilities>
		</cpt>
	</nodes>
	<extensions>
		<genie version="1.0" app="GeNIe 3.0.5905.0 ACADEMIC" name="1000-3">
			<node id="PKC">
				<name>PKC</name>
				<interior color="e5f6f7" />
				<outline color="000080" />
				<font color="000000" name="Arial" size="8" />
				<position>490 10 562 58</position>
			</node>
			<node id="PKA">
				<name>PKA</name>
				<interior color="e5f6f7" />
				<outline color="000080" />
				<font color="000000" name="Arial" size="8" />
				<position>298 10 370 58</position>
			</node>
			<node id="Raf">
				<name>Raf</name>
				<interior color="e5f6f7" />
				<outline color="000080" />
				<font color="000000" name="Arial" size="8" />
				<position>394 10 466 58</position>
			</node>
			<node id="Mek">
				<name>Mek</name>
				<interior color="e5f6f7" />
				<outline color="000080" />
				<font color="000000" name="Arial" size="8" />
				<position>10 10 82 58</position>
			</node>
			<node id="Erk">
				<name>Erk</name>
				<interior color="e5f6f7" />
				<outline color="000080" />
				<font color="000000" name="Arial" size="8" />
				<position>202 10 274 58</position>
			</node>
			<node id="Akt">
				<name>Akt</name>
				<interior color="e5f6f7" />
				<outline color="000080" />
				<font color="000000" name="Arial" size="8" />
				<position>106 10 178 58</position>
			</node>
			<node id="Jnk">
				<name>Jnk</name>
				<interior color="e5f6f7" />
				<outline color="000080" />
				<font color="000000" name="Arial" size="8" />
				<position>586 10 658 58</position>
			</node>
			<node id="P38">
				<name>P38</name>
				<interior color="e5f6f7" />
				<outline color="000080" />
				<font color="000000" name="Arial" size="8" />
				<position>586 74 658 122</position>
			</node>
			<node id="Plcg">
				<name>Plcg</name>
				<interior color="e5f6f7" />
				<outline color="000080" />
				<font color="000000" name="Arial" size="8" />
				<position>202 74 274 122</position>
			</node>
			<node id="PIP3">
				<name>PIP3</name>
				<interior color="e5f6f7" />
				<outline color="000080" />
				<font color="000000" name="Arial" size="8" />
				<position>10 74 82 122</position>
			</node>
			<node id="PIP2">
				<name>PIP2</name>
				<interior color="e5f6f7" />
				<outline color="000080" />
				<font color="000000" name="Arial" size="8" />
				<position>106 74 178 122</position>
			</node>
			<textbox>
				<caption>Input file: 1000-3.txt\nData rows: 1000\nElapsed time: 0.015s\n\nLearning algorithm: Greedy ThickThinning\nAlgorithm parameters:\nMax parent count: 8\nNo background knowledge\n\nScore: -7786.06\nEM Log Likelihood: -7195.42</caption>
				<font color="000000" name="Arial" size="8" />
				<position>10 142 208 296</position>
			</textbox>
		</genie>
	</extensions>
</smile>
