<?xml version="1.0" encoding="UTF-8"?>
<!-- This network was created in GeNIe Academic, which can be used for academic teaching and research purposes only -->
<smile version="1.0" id="x00_2" numsamples="10000" discsamples="10000">
	<nodes>
		<cpt id="PKA">
			<state id="x1" />
			<state id="x2" />
			<state id="x3" />
			<probabilities>0.184 0.718 0.098</probabilities>
		</cpt>
		<cpt id="Jnk">
			<state id="x1" />
			<state id="x2" />
			<state id="x3" />
			<parents>PKA</parents>
			<probabilities>0.3369565217391304 0.2391304347826087 0.4239130434782609 0.5037037037037038 0.4953703703703704 0.000925925925925926 0.9466666666666665 0.04666666666666666 0.006666666666666665</probabilities>
		</cpt>
		<cpt id="PKC">
			<state id="x1" />
			<state id="x2" />
			<state id="x3" />
			<parents>PKA Jnk</parents>
			<probabilities>0.6979166666666667 0.2916666666666667 0.01041666666666667 0.6818181818181819 0.2727272727272727 0.04545454545454546 0.9833333333333332 0.008333333333333331 0.008333333333333331 0.2430939226519337 0.729281767955801 0.02762430939226519 0.1797752808988764 0.5617977528089888 0.2584269662921348 0.3333333333333333 0.3333333333333333 0.3333333333333333 0.9236111111111109 0.06944444444444443 0.006944444444444442 0.4444444444444444 0.1111111111111111 0.4444444444444444 0.3333333333333333 0.3333333333333333 0.3333333333333333</probabilities>
		</cpt>
		<cpt id="Mek">
			<state id="x1" />
			<state id="x2" />
			<state id="x3" />
			<parents>PKC PKA</parents>
			<probabilities>0.2631578947368421 0.03947368421052631 0.6973684210526315 0.6017316017316018 0.3939393939393939 0.004329004329004329 0.9855072463768114 0.007246376811594201 0.007246376811594201 0.4583333333333333 0.5208333333333334 0.02083333333333333 0.4956896551724138 0.5 0.004310344827586207 0.5833333333333334 0.3333333333333333 0.08333333333333333 0.6666666666666667 0.1666666666666667 0.1666666666666667 0.6794871794871794 0.314102564102564 0.006410256410256409 0.6666666666666667 0.1666666666666667 0.1666666666666667</probabilities>
		</cpt>
		<cpt id="Raf">
			<state id="x1" />
			<state id="x2" />
			<state id="x3" />
			<parents>PKC PKA Mek</parents>
			<probabilities>0.15 0.15 0.7000000000000001 0.5833333333333334 0.3333333333333333 0.08333333333333333 0.006172839506172839 0.1172839506172839 0.8765432098765432 0.4782608695652174 0.1956521739130435 0.3260869565217391 0.3 0.6 0.1 0.3333333333333333 0.3333333333333333 0.3333333333333333 0.8666666666666667 0.1111111111111111 0.02222222222222222 0.3333333333333333 0.3333333333333333 0.3333333333333333 0.3333333333333333 0.3333333333333333 0.3333333333333333 0.4285714285714285 0.1428571428571428 0.4285714285714285 0.2592592592592592 0.7037037037037036 0.03703703703703703 0.3333333333333333 0.3333333333333333 0.3333333333333333 0.8521739130434782 0.1217391304347826 0.02608695652173913 0.4396551724137931 0.4913793103448276 0.06896551724137931 0.1666666666666667 0.6666666666666667 0.1666666666666667 0.7777777777777777 0.1111111111111111 0.1111111111111111 0.1666666666666667 0.1666666666666667 0.6666666666666666 0.3333333333333333 0.3333333333333333 0.3333333333333333 0.6666666666666667 0.1666666666666667 0.1666666666666667 0.3333333333333333 0.3333333333333333 0.3333333333333333 0.3333333333333333 0.3333333333333333 0.3333333333333333 0.9814814814814814 0.009259259259259257 0.009259259259259257 0.5490196078431373 0.4313725490196078 0.0196078431372549 0.3333333333333333 0.3333333333333333 0.3333333333333333 0.6666666666666667 0.1666666666666667 0.1666666666666667 0.3333333333333333 0.3333333333333333 0.3333333333333333 0.3333333333333333 0.3333333333333333 0.3333333333333333</probabilities>
		</cpt>
		<cpt id="Akt">
			<state id="x1" />
			<state id="x2" />
			<state id="x3" />
			<parents>PKA Mek</parents>
			<probabilities>0.5632183908045978 0.4252873563218392 0.01149425287356322 0.1818181818181818 0.6363636363636364 0.1818181818181818 0.1320754716981132 0.2830188679245283 0.5849056603773585 0.7174280879864636 0.2808798646362098 0.001692047377326565 0.6049382716049383 0.382716049382716 0.01234567901234568 0.6666666666666667 0.1666666666666667 0.1666666666666667 0.7619047619047619 0.2312925170068027 0.006802721088435373 0.1666666666666667 0.6666666666666667 0.1666666666666667 0.3333333333333333 0.3333333333333333 0.3333333333333333</probabilities>
		</cpt>
		<cpt id="Erk">
			<state id="x1" />
			<state id="x2" />
			<state id="x3" />
			<parents>PKA Mek Akt</parents>
			<probabilities>0.9019607843137255 0.07843137254901961 0.0196078431372549 0.4871794871794872 0.4871794871794872 0.02564102564102564 0.3333333333333333 0.3333333333333333 0.3333333333333333 0.4444444444444444 0.4444444444444444 0.1111111111111111 0.1666666666666667 0.7916666666666669 0.04166666666666667 0.1111111111111111 0.1111111111111111 0.7777777777777778 0.04166666666666667 0.9166666666666669 0.04166666666666667 0.02083333333333333 0.6458333333333334 0.3333333333333333 0.01041666666666667 0.01041666666666667 0.9791666666666666 0.1205673758865248 0.8226950354609929 0.05673758865248227 0.1454545454545454 0.3636363636363636 0.4909090909090909 0.3333333333333333 0.3333333333333333 0.3333333333333333 0.0510204081632653 0.8877551020408162 0.06122448979591837 0.04838709677419355 0.2419354838709677 0.7096774193548387 0.1111111111111111 0.1111111111111111 0.7777777777777778 0.1666666666666667 0.6666666666666667 0.1666666666666667 0.3333333333333333 0.3333333333333333 0.3333333333333333 0.3333333333333333 0.3333333333333333 0.3333333333333333 0.08108108108108109 0.8648648648648649 0.05405405405405406 0.09090909090909091 0.1818181818181818 0.7272727272727273 0.3333333333333333 0.3333333333333333 0.3333333333333333 0.3333333333333333 0.3333333333333333 0.3333333333333333 0.1666666666666667 0.1666666666666667 0.6666666666666666 0.3333333333333333 0.3333333333333333 0.3333333333333333 0.3333333333333333 0.3333333333333333 0.3333333333333333 0.3333333333333333 0.3333333333333333 0.3333333333333333 0.3333333333333333 0.3333333333333333 0.3333333333333333</probabilities>
		</cpt>
		<cpt id="P38">
			<state id="x1" />
			<state id="x2" />
			<state id="x3" />
			<parents>PKC PKA</parents>
			<probabilities>0.3552631578947368 0.03947368421052631 0.6052631578947368 0.8874458874458876 0.1082251082251083 0.00432900432900433 0.7777777777777778 0.1111111111111111 0.1111111111111111 0.5208333333333334 0.4583333333333333 0.02083333333333333 0.7997138769670957 0.1988555078683834 0.001430615164520743 0.08333333333333333 0.08333333333333333 0.8333333333333334 0.1666666666666667 0.6666666666666667 0.1666666666666667 0.6987179487179487 0.2948717948717948 0.006410256410256409 0.1666666666666667 0.6666666666666667 0.1666666666666667</probabilities>
		</cpt>
		<cpt id="PIP3">
			<state id="x1" />
			<state id="x2" />
			<state id="x3" />
			<probabilities>0.256 0.44 0.304</probabilities>
		</cpt>
		<cpt id="Plcg">
			<state id="x1" />
			<state id="x2" />
			<state id="x3" />
			<parents>PIP3</parents>
			<probabilities>0.7734375 0.0234375 0.203125 0.8454545454545455 0.04545454545454546 0.1090909090909091 0.7697368421052632 0.1644736842105263 0.06578947368421052</probabilities>
		</cpt>
		<cpt id="PIP2">
			<state id="x1" />
			<state id="x2" />
			<state id="x3" />
			<parents>Plcg PIP3</parents>
			<probabilities>0.9933333333333335 0.003333333333333334 0.003333333333333334 0.9803921568627449 0.017825311942959 0.0017825311942959 0.8376068376068377 0.1367521367521368 0.02564102564102564 0.8333333333333334 0.08333333333333333 0.08333333333333333 0.9393939393939393 0.0303030303030303 0.0303030303030303 0.5128205128205129 0.4743589743589744 0.01282051282051282 0.07692307692307693 0.5 0.4230769230769231 0.08333333333333333 0.3333333333333333 0.5833333333333333 0.0303030303030303 0.0303030303030303 0.9393939393939394</probabilities>
		</cpt>
	</nodes>
	<extensions>
		<genie version="1.0" app="GeNIe 3.0.5905.0 ACADEMIC" name="500-2">
			<node id="PKC">
				<name>PKC</name>
				<interior color="e5f6f7" />
				<outline color="000080" />
				<font color="000000" name="Arial" size="8" />
				<position>202 10 274 58</position>
			</node>
			<node id="PKA">
				<name>PKA</name>
				<interior color="e5f6f7" />
				<outline color="000080" />
				<font color="000000" name="Arial" size="8" />
				<position>10 10 82 58</position>
			</node>
			<node id="Raf">
				<name>Raf</name>
				<interior color="e5f6f7" />
				<outline color="000080" />
				<font color="000000" name="Arial" size="8" />
				<position>394 10 466 58</position>
			</node>
			<node id="Mek">
				<name>Mek</name>
				<interior color="e5f6f7" />
				<outline color="000080" />
				<font color="000000" name="Arial" size="8" />
				<position>298 10 370 58</position>
			</node>
			<node id="Erk">
				<name>Erk</name>
				<interior color="e5f6f7" />
				<outline color="000080" />
				<font color="000000" name="Arial" size="8" />
				<position>490 10 562 58</position>
			</node>
			<node id="Akt">
				<name>Akt</name>
				<interior color="e5f6f7" />
				<outline color="000080" />
				<font color="000000" name="Arial" size="8" />
				<position>394 74 466 122</position>
			</node>
			<node id="Jnk">
				<name>Jnk</name>
				<interior color="e5f6f7" />
				<outline color="000080" />
				<font color="000000" name="Arial" size="8" />
				<position>106 10 178 58</position>
			</node>
			<node id="P38">
				<name>P38</name>
				<interior color="e5f6f7" />
				<outline color="000080" />
				<font color="000000" name="Arial" size="8" />
				<position>298 74 370 122</position>
			</node>
			<node id="Plcg">
				<name>Plcg</name>
				<interior color="e5f6f7" />
				<outline color="000080" />
				<font color="000000" name="Arial" size="8" />
				<position>106 74 178 122</position>
			</node>
			<node id="PIP3">
				<name>PIP3</name>
				<interior color="e5f6f7" />
				<outline color="000080" />
				<font color="000000" name="Arial" size="8" />
				<position>10 74 82 122</position>
			</node>
			<node id="PIP2">
				<name>PIP2</name>
				<interior color="e5f6f7" />
				<outline color="000080" />
				<font color="000000" name="Arial" size="8" />
				<position>202 74 274 122</position>
			</node>
			<textbox>
				<caption>Input file: 500-2.txt\nData rows: 500\nElapsed time: 0.015s\n\nLearning algorithm: Greedy ThickThinning\nAlgorithm parameters:\nMax parent count: 8\nNo background knowledge\n\nScore: -4106.96\nEM Log Likelihood: -3600.27</caption>
				<font color="000000" name="Arial" size="8" />
				<position>10 142 208 296</position>
			</textbox>
		</genie>
	</extensions>
</smile>
