<?xml version="1.0" encoding="UTF-8"?>
<!-- This network was created in GeNIe Academic, which can be used for academic teaching and research purposes only -->
<smile version="1.0" id="x00_3" numsamples="10000" discsamples="10000">
	<nodes>
		<cpt id="Raf">
			<state id="x1" />
			<state id="x2" />
			<state id="x3" />
			<probabilities>0.506 0.266 0.228</probabilities>
		</cpt>
		<cpt id="Mek">
			<state id="x1" />
			<state id="x2" />
			<state id="x3" />
			<parents>Raf</parents>
			<probabilities>0.7808398950131233 0.2178477690288714 0.001312335958005249 0.3157894736842105 0.6466165413533834 0.03759398496240601 0.4473684210526315 0.1140350877192982 0.4385964912280702</probabilities>
		</cpt>
		<cpt id="PKA">
			<state id="x1" />
			<state id="x2" />
			<state id="x3" />
			<parents>Raf Mek</parents>
			<probabilities>0.05050505050505051 0.6666666666666667 0.2828282828282829 0.02380952380952381 0.9702380952380952 0.005952380952380952 0.3333333333333333 0.3333333333333333 0.3333333333333333 0.09523809523809523 0.7619047619047619 0.1428571428571428 0.07279693486590039 0.9233716475095786 0.003831417624521073 0.7222222222222222 0.2222222222222222 0.05555555555555556 0.641025641025641 0.3525641025641025 0.006410256410256409 0.07692307692307693 0.8461538461538463 0.07692307692307693 0.9281045751633986 0.065359477124183 0.006535947712418299</probabilities>
		</cpt>
		<cpt id="Jnk">
			<state id="x1" />
			<state id="x2" />
			<state id="x3" />
			<parents>PKA</parents>
			<probabilities>0.4433962264150943 0.2735849056603774 0.2830188679245283 0.5075528700906344 0.4894259818731118 0.003021148036253776 0.9739583333333334 0.02083333333333333 0.005208333333333333</probabilities>
		</cpt>
		<cpt id="PKC">
			<state id="x1" />
			<state id="x2" />
			<state id="x3" />
			<parents>PKA Raf Jnk</parents>
			<probabilities>0.2666666666666667 0.6666666666666667 0.06666666666666667 0.6666666666666666 0.1666666666666667 0.1666666666666667 0.6666666666666667 0.1666666666666667 0.1666666666666667 0.4761904761904762 0.4761904761904762 0.04761904761904762 0.4444444444444444 0.4444444444444444 0.1111111111111111 0.9047619047619049 0.04761904761904762 0.04761904761904762 0.8245614035087718 0.1666666666666667 0.008771929824561403 0.8333333333333335 0.1515151515151515 0.01515151515151515 0.9722222222222223 0.01388888888888889 0.01388888888888889 0.1392405063291139 0.8481012658227848 0.01265822784810127 0.1132075471698113 0.5283018867924528 0.3584905660377358 0.1666666666666667 0.1666666666666667 0.6666666666666666 0.1904761904761905 0.8047619047619048 0.004761904761904761 0.1363636363636364 0.6818181818181819 0.1818181818181818 0.3333333333333333 0.3333333333333333 0.3333333333333333 0.4920634920634921 0.4920634920634921 0.01587301587301587 0.641025641025641 0.3333333333333333 0.02564102564102564 0.3333333333333333 0.3333333333333333 0.3333333333333333 0.9345238095238095 0.05952380952380952 0.005952380952380952 0.6666666666666667 0.1666666666666667 0.1666666666666667 0.3333333333333333 0.3333333333333333 0.3333333333333333 0.761904761904762 0.1904761904761905 0.04761904761904762 0.3333333333333333 0.3333333333333333 0.3333333333333333 0.3333333333333333 0.3333333333333333 0.3333333333333333 0.1666666666666667 0.6666666666666667 0.1666666666666667 0.3333333333333333 0.3333333333333333 0.3333333333333333 0.3333333333333333 0.3333333333333333 0.3333333333333333</probabilities>
		</cpt>
		<cpt id="Akt">
			<state id="x1" />
			<state id="x2" />
			<state id="x3" />
			<parents>PKA Mek</parents>
			<probabilities>0.6319444444444444 0.361111111111111 0.006944444444444444 0.7037037037037036 0.03703703703703703 0.2592592592592592 0.07843137254901961 0.1568627450980392 0.7647058823529411 0.663023679417122 0.3351548269581057 0.001821493624772313 0.6324200913242009 0.365296803652968 0.00228310502283105 0.2666666666666667 0.6666666666666667 0.06666666666666667 0.8624338624338624 0.1322751322751323 0.005291005291005291 0.1666666666666667 0.6666666666666667 0.1666666666666667 0.3333333333333333 0.3333333333333333 0.3333333333333333</probabilities>
		</cpt>
		<cpt id="Erk">
			<state id="x1" />
			<state id="x2" />
			<state id="x3" />
			<parents>PKA Mek Akt</parents>
			<probabilities>0.881720430107527 0.1075268817204301 0.01075268817204301 0.7962962962962963 0.1851851851851852 0.01851851851851852 0.3333333333333333 0.3333333333333333 0.3333333333333333 0.4761904761904762 0.4761904761904762 0.04761904761904762 0.3333333333333333 0.3333333333333333 0.3333333333333333 0.1111111111111111 0.1111111111111111 0.7777777777777778 0.06666666666666668 0.8666666666666668 0.06666666666666668 0.03703703703703703 0.5925925925925926 0.3703703703703703 0.008333333333333333 0.008333333333333333 0.9833333333333334 0.06611570247933884 0.9008264462809917 0.03305785123966942 0.1147540983606557 0.5409836065573771 0.3442622950819672 0.3333333333333333 0.3333333333333333 0.3333333333333333 0.04347826086956522 0.9347826086956521 0.02173913043478261 0.169811320754717 0.3207547169811321 0.5094339622641509 0.3333333333333333 0.3333333333333333 0.3333333333333333 0.1666666666666667 0.6666666666666667 0.1666666666666667 0.08333333333333333 0.3333333333333333 0.5833333333333334 0.3333333333333333 0.3333333333333333 0.3333333333333333 0.1481481481481481 0.7962962962962963 0.05555555555555555 0.03703703703703703 0.1481481481481481 0.8148148148148148 0.3333333333333333 0.3333333333333333 0.3333333333333333 0.3333333333333333 0.3333333333333333 0.3333333333333333 0.1666666666666667 0.1666666666666667 0.6666666666666666 0.3333333333333333 0.3333333333333333 0.3333333333333333 0.3333333333333333 0.3333333333333333 0.3333333333333333 0.3333333333333333 0.3333333333333333 0.3333333333333333 0.3333333333333333 0.3333333333333333 0.3333333333333333</probabilities>
		</cpt>
		<cpt id="P38">
			<state id="x1" />
			<state id="x2" />
			<state id="x3" />
			<parents>PKC PKA</parents>
			<probabilities>0.3181818181818182 0.09090909090909091 0.5909090909090909 0.9 0.08333333333333333 0.01666666666666667 0.7413793103448276 0.1379310344827586 0.1206896551724138 0.6296296296296297 0.3518518518518518 0.01851851851851852 0.8184523809523809 0.1800595238095238 0.001488095238095238 0.2 0.4 0.4 0.6666666666666667 0.1666666666666667 0.1666666666666667 0.7414965986394557 0.2517006802721088 0.006802721088435373 0.3333333333333333 0.3333333333333333 0.3333333333333333</probabilities>
		</cpt>
		<cpt id="PIP3">
			<state id="x1" />
			<state id="x2" />
			<state id="x3" />
			<probabilities>0.21 0.442 0.348</probabilities>
		</cpt>
		<cpt id="PIP2">
			<state id="x1" />
			<state id="x2" />
			<state id="x3" />
			<probabilities>0.848 0.08799999999999999 0.064</probabilities>
		</cpt>
		<cpt id="Plcg">
			<state id="x1" />
			<state id="x2" />
			<state id="x3" />
			<parents>PIP3 PIP2</parents>
			<probabilities>0.8777777777777778 0.06666666666666667 0.05555555555555556 0.08333333333333333 0.08333333333333333 0.8333333333333334 0.02564102564102564 0.02564102564102564 0.9487179487179488 0.9458544839255499 0.05245346869712352 0.001692047377326565 0.3333333333333333 0.02564102564102564 0.6410256410256411 0.02380952380952381 0.02380952380952381 0.9523809523809523 0.8657074340527579 0.13189448441247 0.002398081534772182 0.6111111111111112 0.3777777777777779 0.01111111111111111 0.04166666666666666 0.04166666666666666 0.9166666666666666</probabilities>
		</cpt>
	</nodes>
	<extensions>
		<genie version="1.0" app="GeNIe 3.0.5905.0 ACADEMIC" name="500-3">
			<node id="PKC">
				<name>PKC</name>
				<interior color="e5f6f7" />
				<outline color="000080" />
				<font color="000000" name="Arial" size="8" />
				<position>394 10 466 58</position>
			</node>
			<node id="PKA">
				<name>PKA</name>
				<interior color="e5f6f7" />
				<outline color="000080" />
				<font color="000000" name="Arial" size="8" />
				<position>202 10 274 58</position>
			</node>
			<node id="Raf">
				<name>Raf</name>
				<interior color="e5f6f7" />
				<outline color="000080" />
				<font color="000000" name="Arial" size="8" />
				<position>10 10 82 58</position>
			</node>
			<node id="Mek">
				<name>Mek</name>
				<interior color="e5f6f7" />
				<outline color="000080" />
				<font color="000000" name="Arial" size="8" />
				<position>106 10 178 58</position>
			</node>
			<node id="Erk">
				<name>Erk</name>
				<interior color="e5f6f7" />
				<outline color="000080" />
				<font color="000000" name="Arial" size="8" />
				<position>394 74 466 122</position>
			</node>
			<node id="Akt">
				<name>Akt</name>
				<interior color="e5f6f7" />
				<outline color="000080" />
				<font color="000000" name="Arial" size="8" />
				<position>298 10 370 58</position>
			</node>
			<node id="Jnk">
				<name>Jnk</name>
				<interior color="e5f6f7" />
				<outline color="000080" />
				<font color="000000" name="Arial" size="8" />
				<position>298 74 370 122</position>
			</node>
			<node id="P38">
				<name>P38</name>
				<interior color="e5f6f7" />
				<outline color="000080" />
				<font color="000000" name="Arial" size="8" />
				<position>490 10 562 58</position>
			</node>
			<node id="Plcg">
				<name>Plcg</name>
				<interior color="e5f6f7" />
				<outline color="000080" />
				<font color="000000" name="Arial" size="8" />
				<position>106 74 178 122</position>
			</node>
			<node id="PIP3">
				<name>PIP3</name>
				<interior color="e5f6f7" />
				<outline color="000080" />
				<font color="000000" name="Arial" size="8" />
				<position>10 74 82 122</position>
			</node>
			<node id="PIP2">
				<name>PIP2</name>
				<interior color="e5f6f7" />
				<outline color="000080" />
				<font color="000000" name="Arial" size="8" />
				<position>10 138 82 186</position>
			</node>
			<textbox>
				<caption>Input file: 500-3.txt\nData rows: 500\nElapsed time: 0.016s\n\nLearning algorithm: Greedy ThickThinning\nAlgorithm parameters:\nMax parent count: 8\nNo background knowledge\n\nScore: -4077.66\nEM Log Likelihood: -3587.69</caption>
				<font color="000000" name="Arial" size="8" />
				<position>10 206 208 360</position>
			</textbox>
		</genie>
	</extensions>
</smile>
