<?xml version="1.0" encoding="UTF-8"?>
<!-- This network was created in GeNIe Academic, which can be used for academic teaching and research purposes only -->
<smile version="1.0" id="x00" numsamples="10000" discsamples="10000">
	<nodes>
		<cpt id="Akt">
			<state id="x1" />
			<state id="x2" />
			<state id="x3" />
			<probabilities>0.632 0.282 0.08600000000000001</probabilities>
		</cpt>
		<cpt id="Erk">
			<state id="x1" />
			<state id="x2" />
			<state id="x3" />
			<parents>Akt</parents>
			<probabilities>0.1234177215189873 0.8417721518987341 0.03481012658227848 0.1702127659574468 0.375886524822695 0.4539007092198581 0.007575757575757576 0.007575757575757576 0.984848484848485</probabilities>
		</cpt>
		<cpt id="Mek">
			<state id="x1" />
			<state id="x2" />
			<state id="x3" />
			<parents>Erk Akt</parents>
			<probabilities>0.8333333333333333 0.1583333333333333 0.008333333333333331 0.8533333333333335 0.1333333333333334 0.01333333333333334 0.3333333333333333 0.3333333333333333 0.3333333333333333 0.6052631578947368 0.3834586466165413 0.0112781954887218 0.6226415094339622 0.3396226415094339 0.03773584905660377 0.3333333333333333 0.3333333333333333 0.3333333333333333 0.611111111111111 0.361111111111111 0.02777777777777778 0.46875 0.515625 0.015625 0.0303030303030303 0.007575757575757576 0.9621212121212122</probabilities>
		</cpt>
		<cpt id="PKA">
			<state id="x1" />
			<state id="x2" />
			<state id="x3" />
			<parents>Mek Erk Akt</parents>
			<probabilities>0.4545454545454546 0.3939393939393939 0.1515151515151515 0.696969696969697 0.2878787878787879 0.01515151515151515 0.3333333333333333 0.3333333333333333 0.3333333333333333 0.006211180124223602 0.8012422360248447 0.1925465838509317 0.09090909090909091 0.8484848484848485 0.06060606060606061 0.3333333333333333 0.3333333333333333 0.3333333333333333 0.04166666666666667 0.9166666666666669 0.04166666666666667 0.01075268817204301 0.849462365591398 0.1397849462365592 0.1666666666666667 0.6666666666666667 0.1666666666666667 0.1904761904761905 0.761904761904762 0.04761904761904762 0.3333333333333333 0.5833333333333334 0.08333333333333333 0.3333333333333333 0.3333333333333333 0.3333333333333333 0.01294498381877023 0.9838187702265373 0.003236245954692557 0.07017543859649124 0.9122807017543861 0.01754385964912281 0.3333333333333333 0.3333333333333333 0.3333333333333333 0.06666666666666668 0.8666666666666668 0.06666666666666668 0.009803921568627447 0.9509803921568626 0.03921568627450979 0.3333333333333333 0.3333333333333333 0.3333333333333333 0.3333333333333333 0.3333333333333333 0.3333333333333333 0.3333333333333333 0.3333333333333333 0.3333333333333333 0.3333333333333333 0.3333333333333333 0.3333333333333333 0.08333333333333333 0.8333333333333334 0.08333333333333333 0.7777777777777777 0.1111111111111111 0.1111111111111111 0.3333333333333333 0.3333333333333333 0.3333333333333333 0.3333333333333333 0.3333333333333333 0.3333333333333333 0.6666666666666667 0.1666666666666667 0.1666666666666667 0.9844961240310076 0.007751937984496122 0.007751937984496122</probabilities>
		</cpt>
		<cpt id="Raf">
			<state id="x1" />
			<state id="x2" />
			<state id="x3" />
			<parents>PKA Mek</parents>
			<probabilities>0.1470588235294118 0.1764705882352941 0.6764705882352942 0.06666666666666668 0.8666666666666668 0.06666666666666668 0.007246376811594202 0.1159420289855072 0.8768115942028986 0.7000000000000001 0.180952380952381 0.1190476190476191 0.3850931677018633 0.5838509316770186 0.03105590062111801 0.08333333333333333 0.3333333333333333 0.5833333333333334 0.8914728682170542 0.1007751937984496 0.007751937984496122 0.1666666666666667 0.1666666666666667 0.6666666666666666 0.3333333333333333 0.3333333333333333 0.3333333333333333</probabilities>
		</cpt>
		<cpt id="PKC">
			<state id="x1" />
			<state id="x2" />
			<state id="x3" />
			<parents>PKA Raf Mek</parents>
			<probabilities>0.3888888888888889 0.5555555555555556 0.05555555555555555 0.3333333333333333 0.3333333333333333 0.3333333333333333 0.3333333333333333 0.3333333333333333 0.3333333333333333 0.6190476190476191 0.3333333333333334 0.04761904761904762 0.06666666666666668 0.8666666666666668 0.06666666666666668 0.888888888888889 0.05555555555555556 0.05555555555555556 0.763888888888889 0.2222222222222222 0.01388888888888889 0.3333333333333333 0.3333333333333333 0.3333333333333333 0.9837398373983739 0.008130081300813007 0.008130081300813007 0.1700680272108843 0.5850340136054422 0.2448979591836735 0.1129032258064516 0.7580645161290323 0.1290322580645161 0.3333333333333333 0.3333333333333333 0.3333333333333333 0.1842105263157895 0.7894736842105263 0.02631578947368421 0.148936170212766 0.7978723404255319 0.05319148936170213 0.6666666666666667 0.1666666666666667 0.1666666666666667 0.7051282051282052 0.282051282051282 0.01282051282051282 0.2222222222222222 0.7222222222222222 0.05555555555555556 0.4444444444444444 0.4444444444444444 0.1111111111111111 0.9473684210526315 0.02631578947368421 0.02631578947368421 0.3333333333333333 0.3333333333333333 0.3333333333333333 0.3333333333333333 0.3333333333333333 0.3333333333333333 0.6666666666666667 0.2666666666666667 0.06666666666666667 0.3333333333333333 0.3333333333333333 0.3333333333333333 0.3333333333333333 0.3333333333333333 0.3333333333333333 0.3333333333333333 0.3333333333333333 0.3333333333333333 0.1666666666666667 0.6666666666666667 0.1666666666666667 0.3333333333333333 0.3333333333333333 0.3333333333333333</probabilities>
		</cpt>
		<cpt id="Jnk">
			<state id="x1" />
			<state id="x2" />
			<state id="x3" />
			<parents>PKC PKA</parents>
			<probabilities>0.2753623188405797 0.2608695652173913 0.463768115942029 0.5244444444444445 0.4711111111111111 0.004444444444444444 0.9833333333333332 0.008333333333333331 0.008333333333333331 0.6888888888888888 0.2888888888888888 0.02222222222222222 0.6308100929614874 0.3678618857901726 0.001328021248339973 0.8333333333333334 0.08333333333333333 0.08333333333333333 0.3333333333333333 0.3333333333333333 0.3333333333333333 0.06 0.92 0.02 0.1666666666666667 0.6666666666666667 0.1666666666666667</probabilities>
		</cpt>
		<cpt id="P38">
			<state id="x1" />
			<state id="x2" />
			<state id="x3" />
			<parents>PKC PKA</parents>
			<probabilities>0.1449275362318841 0.1449275362318841 0.7101449275362319 0.9244444444444445 0.07111111111111112 0.004444444444444445 0.8205128205128205 0.1282051282051282 0.05128205128205128 0.6888888888888888 0.2888888888888888 0.02222222222222222 0.8300132802124834 0.1686586985391766 0.001328021248339973 0.08333333333333333 0.3333333333333333 0.5833333333333334 0.3333333333333333 0.3333333333333333 0.3333333333333333 0.7712418300653594 0.2222222222222222 0.006535947712418299 0.6666666666666667 0.1666666666666667 0.1666666666666667</probabilities>
		</cpt>
		<cpt id="PIP3">
			<state id="x1" />
			<state id="x2" />
			<state id="x3" />
			<probabilities>0.2 0.478 0.322</probabilities>
		</cpt>
		<cpt id="PIP2">
			<state id="x1" />
			<state id="x2" />
			<state id="x3" />
			<probabilities>0.8280000000000001 0.106 0.066</probabilities>
		</cpt>
		<cpt id="Plcg">
			<state id="x1" />
			<state id="x2" />
			<state id="x3" />
			<parents>PIP3 PIP2</parents>
			<probabilities>0.9176470588235294 0.04705882352941176 0.03529411764705882 0.03333333333333333 0.03333333333333333 0.9333333333333335 0.04761904761904762 0.04761904761904762 0.9047619047619047 0.9215686274509803 0.06862745098039216 0.009803921568627451 0.1428571428571428 0.1428571428571428 0.7142857142857142 0.01515151515151515 0.01515151515151515 0.9696969696969697 0.8280423280423281 0.1693121693121693 0.002645502645502646 0.6559139784946237 0.3333333333333334 0.01075268817204301 0.1904761904761905 0.04761904761904762 0.7619047619047619</probabilities>
		</cpt>
	</nodes>
	<extensions>
		<genie version="1.0" app="GeNIe 3.0.5905.0 ACADEMIC" name="500">
			<node id="PKC">
				<name>PKC</name>
				<interior color="e5f6f7" />
				<outline color="000080" />
				<font color="000000" name="Arial" size="8" />
				<position>490 10 562 58</position>
			</node>
			<node id="PKA">
				<name>PKA</name>
				<interior color="e5f6f7" />
				<outline color="000080" />
				<font color="000000" name="Arial" size="8" />
				<position>298 10 370 58</position>
			</node>
			<node id="Raf">
				<name>Raf</name>
				<interior color="e5f6f7" />
				<outline color="000080" />
				<font color="000000" name="Arial" size="8" />
				<position>394 10 466 58</position>
			</node>
			<node id="Mek">
				<name>Mek</name>
				<interior color="e5f6f7" />
				<outline color="000080" />
				<font color="000000" name="Arial" size="8" />
				<position>202 10 274 58</position>
			</node>
			<node id="Erk">
				<name>Erk</name>
				<interior color="e5f6f7" />
				<outline color="000080" />
				<font color="000000" name="Arial" size="8" />
				<position>106 10 178 58</position>
			</node>
			<node id="Akt">
				<name>Akt</name>
				<interior color="e5f6f7" />
				<outline color="000080" />
				<font color="000000" name="Arial" size="8" />
				<position>10 10 82 58</position>
			</node>
			<node id="Jnk">
				<name>Jnk</name>
				<interior color="e5f6f7" />
				<outline color="000080" />
				<font color="000000" name="Arial" size="8" />
				<position>586 10 658 58</position>
			</node>
			<node id="P38">
				<name>P38</name>
				<interior color="e5f6f7" />
				<outline color="000080" />
				<font color="000000" name="Arial" size="8" />
				<position>586 74 658 122</position>
			</node>
			<node id="Plcg">
				<name>Plcg</name>
				<interior color="e5f6f7" />
				<outline color="000080" />
				<font color="000000" name="Arial" size="8" />
				<position>106 74 178 122</position>
			</node>
			<node id="PIP3">
				<name>PIP3</name>
				<interior color="e5f6f7" />
				<outline color="000080" />
				<font color="000000" name="Arial" size="8" />
				<position>10 74 82 122</position>
			</node>
			<node id="PIP2">
				<name>PIP2</name>
				<interior color="e5f6f7" />
				<outline color="000080" />
				<font color="000000" name="Arial" size="8" />
				<position>10 138 82 186</position>
			</node>
			<textbox>
				<caption>Input file: 500.txt\nData rows: 500\nElapsed time: 0.032s\n\nLearning algorithm: Greedy ThickThinning\nAlgorithm parameters:\nMax parent count: 8\nNo background knowledge\n\nScore: -3971.91\nEM Log Likelihood: -3479.11</caption>
				<font color="000000" name="Arial" size="8" />
				<position>10 206 208 360</position>
			</textbox>
		</genie>
	</extensions>
</smile>
