<?xml version="1.0" encoding="UTF-8"?>
<!-- This network was created in GeNIe Academic, which can be used for academic teaching and research purposes only -->
<smile version="1.0" id="x00_2" numsamples="10000" discsamples="10000">
	<nodes>
		<cpt id="Jnk">
			<state id="x1" />
			<state id="x2" />
			<state id="x3" />
			<probabilities>0.518 0.404 0.078</probabilities>
		</cpt>
		<cpt id="P38">
			<state id="x1" />
			<state id="x2" />
			<state id="x3" />
			<probabilities>0.72 0.172 0.108</probabilities>
		</cpt>
		<cpt id="PKC">
			<state id="x1" />
			<state id="x2" />
			<state id="x3" />
			<parents>Jnk P38</parents>
			<probabilities>0.4338624338624338 0.5449735449735449 0.02116402116402116 0.1875 0.7916666666666666 0.02083333333333333 0.8405797101449276 0.1449275362318841 0.01449275362318841 0.2264150943396226 0.5723270440251572 0.2012578616352201 0.1142857142857143 0.4285714285714285 0.4571428571428571 0.9259259259259258 0.03703703703703703 0.03703703703703703 0.9487179487179487 0.02564102564102564 0.02564102564102564 0.8333333333333334 0.08333333333333333 0.08333333333333333 0.9733333333333335 0.01333333333333334 0.01333333333333334</probabilities>
		</cpt>
		<cpt id="Erk">
			<state id="x1" />
			<state id="x2" />
			<state id="x3" />
			<probabilities>0.12 0.608 0.272</probabilities>
		</cpt>
		<cpt id="Akt">
			<state id="x1" />
			<state id="x2" />
			<state id="x3" />
			<parents>Erk</parents>
			<probabilities>0.6775956284153005 0.3169398907103824 0.005464480874316939 0.8043715846994536 0.1945355191256831 0.001092896174863388 0.1176470588235294 0.625 0.2573529411764706</probabilities>
		</cpt>
		<cpt id="PKA">
			<state id="x1" />
			<state id="x2" />
			<state id="x3" />
			<parents>PKC Akt Jnk P38</parents>
			<probabilities>0.005847953216374269 0.5321637426900584 0.4619883040935672 0.04166666666666666 0.4166666666666667 0.5416666666666666 0.4814814814814814 0.03703703703703703 0.4814814814814814 0.1449275362318841 0.8405797101449276 0.01449275362318841 0.06666666666666668 0.8666666666666668 0.06666666666666668 0.7777777777777777 0.1111111111111111 0.1111111111111111 0.8666666666666668 0.06666666666666668 0.06666666666666668 0.7777777777777777 0.1111111111111111 0.1111111111111111 0.8666666666666668 0.06666666666666668 0.06666666666666668 0.1818181818181818 0.4545454545454546 0.3636363636363636 0.1111111111111111 0.4444444444444444 0.4444444444444444 0.7916666666666669 0.04166666666666667 0.1666666666666667 0.09090909090909091 0.8181818181818182 0.09090909090909091 0.3333333333333333 0.3333333333333333 0.3333333333333333 0.8333333333333334 0.08333333333333333 0.08333333333333333 0.888888888888889 0.05555555555555556 0.05555555555555556 0.6666666666666667 0.1666666666666667 0.1666666666666667 0.9047619047619049 0.04761904761904762 0.04761904761904762 0.8666666666666668 0.06666666666666668 0.06666666666666668 0.3333333333333333 0.3333333333333333 0.3333333333333333 0.8666666666666668 0.06666666666666668 0.06666666666666668 0.8333333333333334 0.08333333333333333 0.08333333333333333 0.3333333333333333 0.3333333333333333 0.3333333333333333 0.8333333333333334 0.08333333333333333 0.08333333333333333 0.8333333333333334 0.08333333333333333 0.08333333333333333 0.3333333333333333 0.3333333333333333 0.3333333333333333 0.9555555555555554 0.02222222222222222 0.02222222222222222 0.01960784313725491 0.9754901960784316 0.004901960784313726 0.1234567901234568 0.8641975308641976 0.01234567901234568 0.1111111111111111 0.1111111111111111 0.7777777777777778 0.02185792349726776 0.9726775956284152 0.005464480874316939 0.04761904761904762 0.9047619047619049 0.04761904761904762 0.3333333333333333 0.3333333333333333 0.3333333333333333 0.3333333333333333 0.3333333333333333 0.3333333333333333 0.3333333333333333 0.3333333333333333 0.3333333333333333 0.3333333333333333 0.3333333333333333 0.3333333333333333 0.03703703703703703 0.9537037037037036 0.009259259259259257 0.2564102564102564 0.717948717948718 0.02564102564102564 0.1666666666666667 0.1666666666666667 0.6666666666666666 0.1444444444444445 0.8444444444444446 0.01111111111111111 0.03703703703703703 0.9259259259259258 0.03703703703703703 0.3333333333333333 0.3333333333333333 0.3333333333333333 0.3333333333333333 0.3333333333333333 0.3333333333333333 0.3333333333333333 0.3333333333333333 0.3333333333333333 0.3333333333333333 0.3333333333333333 0.3333333333333333 0.6666666666666667 0.1666666666666667 0.1666666666666667 0.3333333333333333 0.3333333333333333 0.3333333333333333 0.3333333333333333 0.3333333333333333 0.3333333333333333 0.1111111111111111 0.7777777777777777 0.1111111111111111 0.6666666666666667 0.1666666666666667 0.1666666666666667 0.3333333333333333 0.3333333333333333 0.3333333333333333 0.3333333333333333 0.3333333333333333 0.3333333333333333 0.3333333333333333 0.3333333333333333 0.3333333333333333 0.3333333333333333 0.3333333333333333 0.3333333333333333 0.06666666666666668 0.8666666666666668 0.06666666666666668 0.3333333333333333 0.3333333333333333 0.3333333333333333 0.3333333333333333 0.3333333333333333 0.3333333333333333 0.01754385964912281 0.9649122807017545 0.01754385964912281 0.1 0.8 0.1 0.3333333333333333 0.3333333333333333 0.3333333333333333 0.3333333333333333 0.3333333333333333 0.3333333333333333 0.3333333333333333 0.3333333333333333 0.3333333333333333 0.3333333333333333 0.3333333333333333 0.3333333333333333 0.3333333333333333 0.3333333333333333 0.3333333333333333 0.1666666666666667 0.6666666666666667 0.1666666666666667 0.3333333333333333 0.3333333333333333 0.3333333333333333 0.02222222222222222 0.9555555555555554 0.02222222222222222 0.04761904761904762 0.9047619047619049 0.04761904761904762 0.3333333333333333 0.3333333333333333 0.3333333333333333 0.3333333333333333 0.3333333333333333 0.3333333333333333 0.3333333333333333 0.3333333333333333 0.3333333333333333 0.3333333333333333 0.3333333333333333 0.3333333333333333 0.3333333333333333 0.3333333333333333 0.3333333333333333 0.3333333333333333 0.3333333333333333 0.3333333333333333 0.3333333333333333 0.3333333333333333 0.3333333333333333 0.3333333333333333 0.3333333333333333 0.3333333333333333 0.3333333333333333 0.3333333333333333 0.3333333333333333 0.3333333333333333 0.3333333333333333 0.3333333333333333 0.3333333333333333 0.3333333333333333 0.3333333333333333 0.3333333333333333 0.3333333333333333 0.3333333333333333 0.3333333333333333 0.3333333333333333 0.3333333333333333</probabilities>
		</cpt>
		<cpt id="Raf">
			<state id="x1" />
			<state id="x2" />
			<state id="x3" />
			<parents>PKC PKA</parents>
			<probabilities>0.06578947368421052 0.131578947368421 0.8026315789473684 0.4078947368421053 0.3552631578947368 0.2368421052631579 0.8666666666666667 0.1111111111111111 0.02222222222222222 0.3333333333333333 0.4666666666666667 0.2 0.6422413793103449 0.3103448275862069 0.04741379310344827 0.5833333333333334 0.08333333333333333 0.3333333333333333 0.6666666666666667 0.1666666666666667 0.1666666666666667 0.8525641025641025 0.141025641025641 0.006410256410256409 0.6666666666666667 0.1666666666666667 0.1666666666666667</probabilities>
		</cpt>
		<cpt id="Mek">
			<state id="x1" />
			<state id="x2" />
			<state id="x3" />
			<parents>PKC PKA Raf Erk</parents>
			<probabilities>0.7777777777777777 0.1111111111111111 0.1111111111111111 0.3333333333333333 0.5833333333333334 0.08333333333333333 0.3333333333333333 0.3333333333333333 0.3333333333333333 0.7777777777777777 0.1111111111111111 0.1111111111111111 0.2 0.2 0.6000000000000001 0.08333333333333333 0.08333333333333333 0.8333333333333334 0.9487179487179487 0.02564102564102564 0.02564102564102564 0.1372549019607843 0.0196078431372549 0.8431372549019608 0.009803921568627451 0.009803921568627451 0.9803921568627452 0.8333333333333334 0.08333333333333333 0.08333333333333333 0.7166666666666668 0.2666666666666667 0.01666666666666667 0.5333333333333333 0.4333333333333333 0.03333333333333333 0.6666666666666667 0.1666666666666667 0.1666666666666667 0.3015873015873016 0.6825396825396826 0.01587301587301587 0.3333333333333334 0.6190476190476191 0.04761904761904762 0.5833333333333334 0.3333333333333333 0.08333333333333333 0.8809523809523809 0.09523809523809523 0.02380952380952381 0.4444444444444444 0.4444444444444444 0.1111111111111111 0.8333333333333334 0.08333333333333333 0.08333333333333333 0.977777777777778 0.01111111111111111 0.01111111111111111 0.9166666666666669 0.04166666666666667 0.04166666666666667 0.3333333333333333 0.3333333333333333 0.3333333333333333 0.7777777777777777 0.1111111111111111 0.1111111111111111 0.8333333333333334 0.08333333333333333 0.08333333333333333 0.6666666666666667 0.1666666666666667 0.1666666666666667 0.3333333333333333 0.3333333333333333 0.3333333333333333 0.3333333333333333 0.3333333333333333 0.3333333333333333 0.8333333333333334 0.08333333333333333 0.08333333333333333 0.3333333333333333 0.3333333333333333 0.3333333333333333 0.1111111111111111 0.7777777777777777 0.1111111111111111 0.3333333333333333 0.5833333333333334 0.08333333333333333 0.06666666666666668 0.8666666666666668 0.06666666666666668 0.3333333333333333 0.3333333333333333 0.3333333333333333 0.6666666666666667 0.1666666666666667 0.1666666666666667 0.7777777777777777 0.1111111111111111 0.1111111111111111 0.3333333333333333 0.3333333333333333 0.3333333333333333 0.8070175438596491 0.1754385964912281 0.01754385964912281 0.6972789115646258 0.2993197278911565 0.003401360544217687 0.4380952380952381 0.5523809523809523 0.009523809523809523 0.1666666666666667 0.6666666666666667 0.1666666666666667 0.2040816326530612 0.7755102040816326 0.02040816326530612 0.1884057971014493 0.7971014492753624 0.01449275362318841 0.4444444444444444 0.4444444444444444 0.1111111111111111 0.2333333333333334 0.7333333333333334 0.03333333333333333 0.3333333333333333 0.3333333333333333 0.3333333333333333 0.3333333333333333 0.3333333333333333 0.3333333333333333 0.7777777777777777 0.1111111111111111 0.1111111111111111 0.3333333333333333 0.3333333333333333 0.3333333333333333 0.3333333333333333 0.3333333333333333 0.3333333333333333 0.3333333333333333 0.3333333333333333 0.3333333333333333 0.3333333333333333 0.3333333333333333 0.3333333333333333 0.3333333333333333 0.3333333333333333 0.3333333333333333 0.3333333333333333 0.3333333333333333 0.3333333333333333 0.1666666666666667 0.6666666666666667 0.1666666666666667 0.3333333333333333 0.3333333333333333 0.3333333333333333 0.6666666666666667 0.1666666666666667 0.1666666666666667 0.3333333333333333 0.3333333333333333 0.3333333333333333 0.3333333333333333 0.3333333333333333 0.3333333333333333 0.3333333333333333 0.3333333333333333 0.3333333333333333 0.3333333333333333 0.3333333333333333 0.3333333333333333 0.3333333333333333 0.3333333333333333 0.3333333333333333 0.3333333333333333 0.3333333333333333 0.3333333333333333 0.3333333333333333 0.3333333333333333 0.3333333333333333 0.6666666666666667 0.2666666666666667 0.06666666666666667 0.839080459770115 0.1494252873563219 0.01149425287356322 0.641025641025641 0.3333333333333333 0.02564102564102564 0.1666666666666667 0.6666666666666667 0.1666666666666667 0.06666666666666668 0.8666666666666668 0.06666666666666668 0.1111111111111111 0.7777777777777777 0.1111111111111111 0.3333333333333333 0.3333333333333333 0.3333333333333333 0.3333333333333333 0.3333333333333333 0.3333333333333333 0.3333333333333333 0.3333333333333333 0.3333333333333333 0.3333333333333333 0.3333333333333333 0.3333333333333333 0.6666666666666667 0.1666666666666667 0.1666666666666667 0.3333333333333333 0.3333333333333333 0.3333333333333333 0.3333333333333333 0.3333333333333333 0.3333333333333333 0.3333333333333333 0.3333333333333333 0.3333333333333333 0.3333333333333333 0.3333333333333333 0.3333333333333333 0.3333333333333333 0.3333333333333333 0.3333333333333333 0.3333333333333333 0.3333333333333333 0.3333333333333333 0.3333333333333333 0.3333333333333333 0.3333333333333333</probabilities>
		</cpt>
		<cpt id="PIP2">
			<state id="x1" />
			<state id="x2" />
			<state id="x3" />
			<probabilities>0.8200000000000001 0.104 0.076</probabilities>
		</cpt>
		<cpt id="PIP3">
			<state id="x1" />
			<state id="x2" />
			<state id="x3" />
			<parents>PIP2</parents>
			<probabilities>0.2536585365853659 0.475609756097561 0.2707317073170732 0.25 0.2115384615384616 0.5384615384615385 0.2894736842105263 0.3684210526315789 0.3421052631578947</probabilities>
		</cpt>
		<cpt id="Plcg">
			<state id="x1" />
			<state id="x2" />
			<state id="x3" />
			<parents>PIP3 PIP2</parents>
			<probabilities>0.951923076923077 0.02884615384615385 0.01923076923076923 0.02380952380952381 0.02380952380952381 0.9523809523809523 0.02777777777777778 0.02777777777777778 0.9444444444444444 0.9384615384615385 0.05128205128205128 0.01025641025641026 0.2777777777777778 0.02777777777777778 0.6944444444444444 0.02222222222222222 0.02222222222222222 0.9555555555555556 0.8779761904761906 0.1190476190476191 0.002976190476190476 0.5632183908045978 0.4252873563218392 0.01149425287356322 0.2380952380952381 0.02380952380952381 0.7380952380952381</probabilities>
		</cpt>
	</nodes>
	<extensions>
		<genie version="1.0" app="GeNIe 3.0.5905.0 ACADEMIC" name="500-2">
			<node id="PKC">
				<name>PKC</name>
				<interior color="e5f6f7" />
				<outline color="000080" />
				<font color="000000" name="Arial" size="8" />
				<position>28 144 100 192</position>
			</node>
			<node id="PKA">
				<name>PKA</name>
				<interior color="e5f6f7" />
				<outline color="000080" />
				<font color="000000" name="Arial" size="8" />
				<position>60 72 132 120</position>
			</node>
			<node id="Raf">
				<name>Raf</name>
				<interior color="e5f6f7" />
				<outline color="000080" />
				<font color="000000" name="Arial" size="8" />
				<position>146 23 218 71</position>
			</node>
			<node id="Mek">
				<name>Mek</name>
				<interior color="e5f6f7" />
				<outline color="000080" />
				<font color="000000" name="Arial" size="8" />
				<position>257 12 329 60</position>
			</node>
			<node id="Erk">
				<name>Erk</name>
				<interior color="e5f6f7" />
				<outline color="000080" />
				<font color="000000" name="Arial" size="8" />
				<position>360 43 432 91</position>
			</node>
			<node id="Akt">
				<name>Akt</name>
				<interior color="e5f6f7" />
				<outline color="000080" />
				<font color="000000" name="Arial" size="8" />
				<position>421 107 493 155</position>
			</node>
			<node id="Jnk">
				<name>Jnk</name>
				<interior color="e5f6f7" />
				<outline color="000080" />
				<font color="000000" name="Arial" size="8" />
				<position>421 181 493 229</position>
			</node>
			<node id="P38">
				<name>P38</name>
				<interior color="e5f6f7" />
				<outline color="000080" />
				<font color="000000" name="Arial" size="8" />
				<position>360 245 432 293</position>
			</node>
			<node id="Plcg">
				<name>Plcg</name>
				<interior color="e5f6f7" />
				<outline color="000080" />
				<font color="000000" name="Arial" size="8" />
				<position>257 276 329 324</position>
			</node>
			<node id="PIP3">
				<name>PIP3</name>
				<interior color="e5f6f7" />
				<outline color="000080" />
				<font color="000000" name="Arial" size="8" />
				<position>146 265 218 313</position>
			</node>
			<node id="PIP2">
				<name>PIP2</name>
				<interior color="e5f6f7" />
				<outline color="000080" />
				<font color="000000" name="Arial" size="8" />
				<position>60 216 132 264</position>
			</node>
			<textbox>
				<caption>Input file: 500-2.txt\nData rows: 500\nElapsed time: 0.031s\n\nLearning algorithm: PC\nAlgorithm parameters:\nMax adjacency: 8\nSignificance: 0.05\nMax search time: 0\nNo background knowledge\n\nEM Log Likelihood: -3719.16</caption>
				<font color="000000" name="Arial" size="8" />
				<position>10 344 144 512</position>
			</textbox>
		</genie>
	</extensions>
</smile>
